{"learner":{"attributes":{"scikit_learn":"{\"_estimator_type\": \"classifier\"}"},"feature_names":[],"feature_types":[],"gradient_booster":{"model":{"cats":{"enc":[],"feature_segments":[],"sorted_idx":[]},"gbtree_model_param":{"num_parallel_tree":"1","num_trees":"80"},"iteration_indptr":[0,1,2,3,4,5,6,7,8,9,10,11,12,13,14,15,16,17,18,19,20,21,22,23,24,25,26,27,28,29,30,31,32,33,34,35,36,37,38,39,40,41,42,43,44,45,46,47,48,49,50,51,52,53,54,55,56,57,58,59,60,61,62,63,64,65,66,67,68,69,70,71,72,73,74,75,76,77,78,79,80],"tree_info":[0,0,0,0,0,0,0,0,0,0,0,0,0,0,0,0,0,0,0,0,0,0,0,0,0,0,0,0,0,0,0,0,0,0,0,0,0,0,0,0,0,0,0,0,0,0,0,0,0,0,0,0,0,0,0,0,0,0,0,0,0,0,0,0,0,0,0,0,0,0,0,0,0,0,0,0,0,0,0,0],"trees":[{"base_weights":[-5.7562895E-4,-1.3433962E0,1.605351E0,-1.3625423E0,2.482061E-1,2.7659708E-1,3.6157814E-1,-1.095901E-1,2.12361E-1,2.321994E-1,-8.5378096E-2],"categories":[],"categories_nodes":[],"categories_segments":[],"categories_sizes":[],"default_left":[0,0,0,0,0,0,0,0,0,0,0],"id":0,"left_children":[1,3,5,7,-1,-1,9,-1,-1,-1,-1],"loss_changes":[8.608325E3,1.8928589E2,4.186338E3,6.743042E1,0E0,0E0,3.9553667E3,0E0,0E0,0E0,0E0],"parents":[2147483647,0,0,1,1,2,2,3,3,6,6],"right_children":[2,4,6,8,-1,-1,10,-1,-1,-1,-1],"split_conditions":[2E0,1E0,1E0,1E0,2.482061E-1,2.7659708E-1,1E0,-1.095901E-1,2.12361E-1,2.321994E-1,-8.5378096E-2],"split_indices":[11,24,7,23,0,0,28,0,0,0,0],"split_type":[0,0,0,0,0,0,0,0,0,0,0],"sum_hessian":[3.9898567E3,2.1730176E3,1.8168391E3,2.1643904E3,8.627161E0,7.2920056E2,1.0876385E3,2.161104E3,3.2865376E0,3.91098E2,6.965406E2],"tree_param":{"num_deleted":"0","num_feature":"34","num_nodes":"11","size_leaf_vector":"1"}},{"base_weights":[-8.617889E-3,-1.2997403E0,1.4096117E0,-1.3171933E0,2.092258E-1,2.7177472E0,1.7730664E-1,-1.0604407E-1,1.9148816E-1,1.0375884E-1,2.3386405E-1,2.2873677E-1,-1.0965481E-1],"categories":[],"categories_nodes":[],"categories_segments":[],"categories_sizes":[],"default_left":[0,0,0,0,0,0,0,0,0,0,0,0,0],"id":1,"left_children":[1,3,5,7,-1,9,11,-1,-1,-1,-1,-1,-1],"loss_changes":[7.2676416E3,1.4540576E2,3.0484883E3,6.7340576E1,0E0,2.6412793E2,4.0516755E3,0E0,0E0,0E0,0E0,0E0,0E0],"parents":[2147483647,0,0,1,1,2,2,3,3,5,5,6,6],"right_children":[2,4,6,8,-1,10,12,-1,-1,-1,-1,-1,-1],"split_conditions":[2E0,1E0,1E0,1E0,2.092258E-1,4.9254122E-1,1E0,-1.0604407E-1,1.9148816E-1,1.0375884E-1,2.3386405E-1,2.2873677E-1,-1.0965481E-1],"split_indices":[11,24,29,23,0,31,7,0,0,0,0,0,0],"split_type":[0,0,0,0,0,0,0,0,0,0,0,0,0],"sum_hessian":[3.9669854E3,2.0765906E3,1.8903949E3,2.068035E3,8.555534E0,9.1639923E2,9.7399567E2,2.064029E3,4.005921E0,1.1674958E2,7.9964966E2,3.5613794E2,6.178577E2],"tree_param":{"num_deleted":"0","num_feature":"34","num_nodes":"13","size_leaf_vector":"1"}},{"base_weights":[-8.241955E-3,-1.2580086E0,1.2449828E0,-1.2761626E0,1.8476926E-1,2.3486772E0,1.4170586E-1,-1.0288846E-1,1.7590955E-1,9.340749E-2,2.0163524E-1,1.9831204E-1,-1.0655646E-1],"categories":[],"categories_nodes":[],"categories_segments":[],"categories_sizes":[],"default_left":[0,0,0,0,0,0,0,0,0,0,0,0,0],"id":2,"left_children":[1,3,5,7,-1,9,11,-1,-1,-1,-1,-1,-1],"loss_changes":[6.1352847E3,1.2997559E2,2.3813313E3,7.027539E1,0E0,1.9540088E2,3.3758975E3,0E0,0E0,0E0,0E0,0E0,0E0],"parents":[2147483647,0,0,1,1,2,2,3,3,5,5,6,6],"right_children":[2,4,6,8,-1,10,12,-1,-1,-1,-1,-1,-1],"split_conditions":[2E0,1E0,1E0,1E0,1.8476926E-1,4.9254122E-1,1E0,-1.0288846E-1,1.7590955E-1,9.340749E-2,2.0163524E-1,1.9831204E-1,-1.0655646E-1],"split_indices":[11,24,29,23,0,31,7,0,0,0,0,0,0],"split_type":[0,0,0,0,0,0,0,0,0,0,0,0,0],"sum_hessian":[3.9152097E3,1.9603076E3,1.9549022E3,1.951022E3,9.285598E0,9.767019E2,9.782003E2,1.9460836E3,4.938444E0,1.24996346E2,8.5170557E2,3.7800717E2,6.001932E2],"tree_param":{"num_deleted":"0","num_feature":"34","num_nodes":"13","size_leaf_vector":"1"}},{"base_weights":[-4.2101304E-4,-1.2191125E0,1.1520231E0,-1.238184E0,1.6706248E-1,1.7839387E-1,2.7089247E-1,-9.981582E-2,1.5790938E-1,1.5560347E-1,-1.0384679E-1],"categories":[],"categories_nodes":[],"categories_segments":[],"categories_sizes":[],"default_left":[0,0,0,0,0,0,0,0,0,0,0],"id":3,"left_children":[1,3,5,7,-1,-1,9,-1,-1,-1,-1],"loss_changes":[5.397065E3,1.2039404E2,1.8752554E3,5.9229492E1,0E0,0E0,2.860014E3,0E0,0E0,0E0,0E0],"parents":[2147483647,0,0,1,1,2,2,3,3,6,6],"right_children":[2,4,6,8,-1,-1,10,-1,-1,-1,-1],"split_conditions":[2E0,1E0,1E0,1E0,1.6706248E-1,1.7839387E-1,1E0,-9.981582E-2,1.5790938E-1,1.5560347E-1,-1.0384679E-1],"split_indices":[11,24,7,23,0,0,29,0,0,0,0],"split_type":[0,0,0,0,0,0,0,0,0,0,0],"sum_hessian":[3.840766E3,1.866701E3,1.974065E3,1.8566208E3,1.0080195E1,8.872041E2,1.0868608E3,1.8517478E3,4.8731475E0,5.256912E2,5.611696E2],"tree_param":{"num_deleted":"0","num_feature":"34","num_nodes":"11","size_leaf_vector":"1"}},{"base_weights":[-7.610596E-3,-1.1875907E0,1.0539258E0,-1.2077447E0,1.53392E-1,1.6234958E-1,2.4118908E-1,-9.923277E-2,-7.510053E-2,1.4054339E-1,-1.01471536E-1],"categories":[],"categories_nodes":[],"categories_segments":[],"categories_sizes":[],"default_left":[0,0,0,0,0,0,0,0,0,0,0],"id":4,"left_children":[1,3,5,7,-1,-1,9,-1,-1,-1,-1],"loss_changes":[4.651328E3,1.1236304E2,1.5492305E3,1.4192871E1,0E0,0E0,2.444515E3,0E0,0E0,0E0,0E0],"parents":[2147483647,0,0,1,1,2,2,3,3,6,6],"right_children":[2,4,6,8,-1,-1,10,-1,-1,-1,-1],"split_conditions":[2E0,1E0,1E0,1E0,1.53392E-1,1.6234958E-1,1E0,-9.923277E-2,-7.510053E-2,1.4054339E-1,-1.01471536E-1],"split_indices":[11,24,7,7,0,0,29,0,0,0,0],"split_type":[0,0,0,0,0,0,0,0,0,0,0],"sum_hessian":[3.7113635E3,1.7575696E3,1.953794E3,1.7468422E3,1.0727386E1,8.8732825E2,1.0664657E3,1.5544624E3,1.9237976E2,5.3209E2,5.343757E2],"tree_param":{"num_deleted":"0","num_feature":"34","num_nodes":"11","size_leaf_vector":"1"}},{"base_weights":[-1.707987E-2,-3.9089984E-1,1.5655039E-1,-4.513702E-1,1.5317269E-1,-5.6273308E-2,1.0202648E-2],"categories":[],"categories_nodes":[],"categories_segments":[],"categories_sizes":[],"default_left":[0,0,0,0,0,0,0],"id":5,"left_children":[1,3,-1,5,-1,-1,-1],"loss_changes":[2.6350889E3,4.1945407E2,0E0,4.2709406E2,0E0,0E0,0E0],"parents":[2147483647,0,0,1,1,3,3],"right_children":[2,4,-1,6,-1,-1,-1],"split_conditions":[1E0,1E0,1.5655039E-1,1E0,1.5317269E-1,-5.6273308E-2,1.0202648E-2],"split_indices":[24,23,0,26,0,0,0],"split_type":[0,0,0,0,0,0,0],"sum_hessian":[3.5690015E3,3.0014094E3,5.675919E2,2.925484E3,7.5925606E1,2.0379673E3,8.875166E2],"tree_param":{"num_deleted":"0","num_feature":"34","num_nodes":"7","size_leaf_vector":"1"}},{"base_weights":[-1.5282405E-2,-1.1536195E0,9.4798476E-1,-1.1705223E0,1.3008882E-1,1.681081E0,1.08916596E-1,-9.437875E-2,1.3754845E-1,5.5396684E-2,1.4736113E-1,-9.957252E-2,1.4823087E-1],"categories":[],"categories_nodes":[],"categories_segments":[],"categories_sizes":[],"default_left":[0,0,0,0,0,0,0,0,0,0,0,0,0],"id":6,"left_children":[1,3,5,7,-1,9,11,-1,-1,-1,-1,-1,-1],"loss_changes":[3.84827E3,7.7483154E1,1.169123E3,4.4607666E1,0E0,1.601289E2,2.0972725E3,0E0,0E0,0E0,0E0,0E0,0E0],"parents":[2147483647,0,0,1,1,2,2,3,3,5,5,6,6],"right_children":[2,4,6,8,-1,10,12,-1,-1,-1,-1,-1,-1],"split_conditions":[2E0,1E0,1E0,1E0,1.3008882E-1,1E0,1E0,-9.437875E-2,1.3754845E-1,5.5396684E-2,1.4736113E-1,-9.957252E-2,1.4823087E-1],"split_indices":[11,24,29,23,0,31,9,0,0,0,0,0,0],"split_type":[0,0,0,0,0,0,0,0,0,0,0,0,0],"sum_hessian":[3.5075244E3,1.6075779E3,1.8999464E3,1.5984371E3,9.140818E0,1.0134706E3,8.864758E2,1.5939479E3,4.489186E0,1.4262404E2,8.708465E2,4.9926224E2,3.8721356E2],"tree_param":{"num_deleted":"0","num_feature":"34","num_nodes":"13","size_leaf_vector":"1"}},{"base_weights":[-1.5457776E-2,-1.1280388E0,8.923327E-1,-1.1457362E0,1.2342757E-1,1.3819402E-1,1.7661287E-1,-9.2398964E-2,1.2832668E-1,1.0873853E-1,-6.9014564E-2],"categories":[],"categories_nodes":[],"categories_segments":[],"categories_sizes":[],"default_left":[0,0,0,0,0,0,0,0,0,0,0],"id":7,"left_children":[1,3,5,7,-1,-1,9,-1,-1,-1,-1],"loss_changes":[3.426551E3,7.3821655E1,1.1163533E3,4.0390015E1,0E0,0E0,1.2390627E3,0E0,0E0,0E0,0E0],"parents":[2147483647,0,0,1,1,2,2,3,3,6,6],"right_children":[2,4,6,8,-1,-1,10,-1,-1,-1,-1],"split_conditions":[2E0,1E0,1E0,1E0,1.2342757E-1,1.3819402E-1,1E0,-9.2398964E-2,1.2832668E-1,1.0873853E-1,-6.9014564E-2],"split_indices":[11,24,7,23,0,0,28,0,0,0,0],"split_type":[0,0,0,0,0,0,0,0,0,0,0],"sum_hessian":[3.3906604E3,1.5233778E3,1.8672827E3,1.5139175E3,9.460279E0,8.611225E2,1.00616016E3,1.5094194E3,4.498022E0,4.7048508E2,5.356751E2],"tree_param":{"num_deleted":"0","num_feature":"34","num_nodes":"11","size_leaf_vector":"1"}},{"base_weights":[-1.2073556E-2,-1.1016849E0,8.4295166E-1,-1.121626E0,1.1853096E-1,1.3069901E-1,1.6391107E-1,-9.047692E-2,1.204544E-1,1.0831298E-1,-9.6493274E-2],"categories":[],"categories_nodes":[],"categories_segments":[],"categories_sizes":[],"default_left":[0,0,0,0,0,0,0,0,0,0,0],"id":8,"left_children":[1,3,5,7,-1,-1,9,-1,-1,-1,-1],"loss_changes":[3.0370894E3,7.5498535E1,9.8056934E2,3.660327E1,0E0,0E0,1.6056843E3,0E0,0E0,0E0,0E0],"parents":[2147483647,0,0,1,1,2,2,3,3,6,6],"right_children":[2,4,6,8,-1,-1,10,-1,-1,-1,-1],"split_conditions":[2E0,1E0,1E0,1E0,1.1853096E-1,1.3069901E-1,1E0,-9.047692E-2,1.204544E-1,1.0831298E-1,-9.6493274E-2],"split_indices":[11,24,7,23,0,0,29,0,0,0,0],"split_type":[0,0,0,0,0,0,0,0,0,0,0],"sum_hessian":[3.2579238E3,1.4323295E3,1.8255944E3,1.4219193E3,1.0410202E1,8.427511E2,9.8284326E2,1.4174523E3,4.4670463E0,5.2599457E2,4.5684875E2],"tree_param":{"num_deleted":"0","num_feature":"34","num_nodes":"11","size_leaf_vector":"1"}},{"base_weights":[-1.9403148E-2,-1.0790374E0,7.972099E-1,-1.0981128E0,1.12647474E-1,1.24465786E-1,1.4370702E-1,-8.8648625E-2,1.15205675E-1,1.0102526E-1,-9.494544E-2],"categories":[],"categories_nodes":[],"categories_segments":[],"categories_sizes":[],"default_left":[0,0,0,0,0,0,0,0,0,0,0],"id":9,"left_children":[1,3,5,7,-1,-1,9,-1,-1,-1,-1],"loss_changes":[2.663836E3,6.51134E1,8.617064E2,3.534204E1,0E0,0E0,1.3938914E3,0E0,0E0,0E0,0E0],"parents":[2147483647,0,0,1,1,2,2,3,3,6,6],"right_children":[2,4,6,8,-1,-1,10,-1,-1,-1,-1],"split_conditions":[2E0,1E0,1E0,1E0,1.12647474E-1,1.24465786E-1,1E0,-8.8648625E-2,1.15205675E-1,1.0102526E-1,-9.494544E-2],"split_indices":[11,24,7,23,0,0,29,0,0,0,0],"split_type":[0,0,0,0,0,0,0,0,0,0,0],"sum_hessian":[3.076478E3,1.3388585E3,1.7376194E3,1.3292223E3,9.6362095E0,8.0350165E2,9.341178E2,1.3245698E3,4.652484E0,5.0739618E2,4.2672162E2],"tree_param":{"num_deleted":"0","num_feature":"34","num_nodes":"11","size_leaf_vector":"1"}},{"base_weights":[-9.296911E-3,-1.059243E0,7.822004E-1,-1.0787239E0,1.0824875E-1,1.19282775E-1,1.6648872E-1,-8.718768E-2,1.1124236E-1,8.956424E-2,-6.0412485E-2],"categories":[],"categories_nodes":[],"categories_segments":[],"categories_sizes":[],"default_left":[0,0,0,0,0,0,0,0,0,0,0],"id":10,"left_children":[1,3,5,7,-1,-1,9,-1,-1,-1,-1],"loss_changes":[2.4330522E3,6.0598755E1,7.2831525E2,3.581372E1,0E0,0E0,7.865436E2,0E0,0E0,0E0,0E0],"parents":[2147483647,0,0,1,1,2,2,3,3,6,6],"right_children":[2,4,6,8,-1,-1,10,-1,-1,-1,-1],"split_conditions":[2E0,1E0,1E0,1E0,1.0824875E-1,1.19282775E-1,1E0,-8.718768E-2,1.1124236E-1,8.956424E-2,-6.0412485E-2],"split_indices":[11,24,7,23,0,0,28,0,0,0,0],"split_type":[0,0,0,0,0,0,0,0,0,0,0],"sum_hessian":[2.9257595E3,1.2574174E3,1.668342E3,1.247893E3,9.524522E0,7.7486346E2,8.934786E2,1.2428535E3,5.0394278E0,4.391465E2,4.5433206E2],"tree_param":{"num_deleted":"0","num_feature":"34","num_nodes":"11","size_leaf_vector":"1"}},{"base_weights":[-1.1157327E-2,-1.0460671E0,7.409569E-1,-1.0641723E0,1.03412434E-1,1.1487959E-1,1.4572486E-1,-8.590207E-2,1.0327712E-1,9.172653E-2,-9.2741214E-2],"categories":[],"categories_nodes":[],"categories_segments":[],"categories_sizes":[],"default_left":[0,0,0,0,0,0,0,0,0,0,0],"id":11,"left_children":[1,3,5,7,-1,-1,9,-1,-1,-1,-1],"loss_changes":[2.1832593E3,5.1361694E1,6.718203E2,2.789441E1,0E0,0E0,1.1456626E3,0E0,0E0,0E0,0E0],"parents":[2147483647,0,0,1,1,2,2,3,3,6,6],"right_children":[2,4,6,8,-1,-1,10,-1,-1,-1,-1],"split_conditions":[2E0,1E0,1E0,1E0,1.03412434E-1,1.1487959E-1,1E0,-8.590207E-2,1.0327712E-1,9.172653E-2,-9.2741214E-2],"split_indices":[11,24,7,23,0,0,29,0,0,0,0],"split_type":[0,0,0,0,0,0,0,0,0,0,0],"sum_hessian":[2.8029146E3,1.179513E3,1.6234017E3,1.1709928E3,8.520179E0,7.482619E2,8.751398E2,1.166779E3,4.2137895E0,4.9535254E2,3.7978723E2],"tree_param":{"num_deleted":"0","num_feature":"34","num_nodes":"11","size_leaf_vector":"1"}},{"base_weights":[-1.3299988E-2,-1.0250398E0,7.130961E-1,-1.0439506E0,1.0035775E-1,1.110833E-1,1.3551828E-1,-8.441633E-2,1.01722285E-1,8.664739E-2,-9.157665E-2],"categories":[],"categories_nodes":[],"categories_segments":[],"categories_sizes":[],"default_left":[0,0,0,0,0,0,0,0,0,0,0],"id":12,"left_children":[1,3,5,7,-1,-1,9,-1,-1,-1,-1],"loss_changes":[1.950066E3,4.9111694E1,6.023656E2,3.001355E1,0E0,0E0,1.0125954E3,0E0,0E0,0E0,0E0],"parents":[2147483647,0,0,1,1,2,2,3,3,6,6],"right_children":[2,4,6,8,-1,-1,10,-1,-1,-1,-1],"split_conditions":[2E0,1E0,1E0,1E0,1.0035775E-1,1.110833E-1,1E0,-8.441633E-2,1.01722285E-1,8.664739E-2,-9.157665E-2],"split_indices":[11,24,7,23,0,0,29,0,0,0,0],"split_type":[0,0,0,0,0,0,0,0,0,0,0],"sum_hessian":[2.6514316E3,1.1079059E3,1.5435259E3,1.0993279E3,8.577987E0,7.108372E2,8.326886E2,1.0945525E3,4.7754307E0,4.7860077E2,3.5408786E2],"tree_param":{"num_deleted":"0","num_feature":"34","num_nodes":"11","size_leaf_vector":"1"}},{"base_weights":[-1.1586473E-2,-1.0088371E0,6.8834513E-1,-1.0263773E0,9.634435E-2,1.1731179E0,5.267327E-2,-8.288653E-2,9.491628E-2,-2.007095E-3,1.1030228E-1,3.76584E-2,-9.0258226E-2],"categories":[],"categories_nodes":[],"categories_segments":[],"categories_sizes":[],"default_left":[0,0,0,0,0,0,0,0,0,0,0,0,0],"id":13,"left_children":[1,3,5,7,-1,9,11,-1,-1,-1,-1,-1,-1],"loss_changes":[1.7553278E3,4.1495483E1,4.552912E2,2.3336548E1,0E0,2.0660974E2,3.166746E2,0E0,0E0,0E0,0E0,0E0,0E0],"parents":[2147483647,0,0,1,1,2,2,3,3,5,5,6,6],"right_children":[2,4,6,8,-1,10,12,-1,-1,-1,-1,-1,-1],"split_conditions":[2E0,1E0,1E0,1E0,9.634435E-2,4.9254122E-1,3E0,-8.288653E-2,9.491628E-2,-2.007095E-3,1.1030228E-1,3.76584E-2,-9.0258226E-2],"split_indices":[11,24,29,23,0,31,11,0,0,0,0,0,0],"split_type":[0,0,0,0,0,0,0,0,0,0,0,0,0],"sum_hessian":[2.5127754E3,1.0361067E3,1.4766686E3,1.0284917E3,7.6150517E0,8.3729193E2,6.3937665E2,1.0245304E3,3.9612563E0,1.227883E2,7.145036E2,4.726521E2,1.6672456E2],"tree_param":{"num_deleted":"0","num_feature":"34","num_nodes":"13","size_leaf_vector":"1"}},{"base_weights":[-1.0300521E-2,-9.9473023E-1,6.6211224E-1,-7.0822173E-1,-8.891221E-2,1.06091104E-1,1.0521879E-1,-8.8594615E-2,-1.3550092E-3,7.893362E-2,-9.0294875E-2],"categories":[],"categories_nodes":[],"categories_segments":[],"categories_sizes":[],"default_left":[0,0,0,0,0,0,0,0,0,0,0],"id":14,"left_children":[1,3,5,7,-1,-1,9,-1,-1,-1,-1],"loss_changes":[1.5905498E3,3.1810303E1,5.2780756E2,7.86185E1,0E0,0E0,8.468173E2,0E0,0E0,0E0,0E0],"parents":[2147483647,0,0,1,1,2,2,3,3,6,6],"right_children":[2,4,6,8,-1,-1,10,-1,-1,-1,-1],"split_conditions":[2E0,1E0,1E0,1E0,-8.891221E-2,1.06091104E-1,1E0,-8.8594615E-2,-1.3550092E-3,7.893362E-2,-9.0294875E-2],"split_indices":[11,12,7,11,0,0,29,0,0,0,0],"split_type":[0,0,0,0,0,0,0,0,0,0,0],"sum_hessian":[2.4008547E3,9.74168E2,1.4266866E3,2.8395044E2,6.9021765E2,6.501189E2,7.765677E2,1.7961958E2,1.0433085E2,4.5309525E2,3.2347247E2],"tree_param":{"num_deleted":"0","num_feature":"34","num_nodes":"11","size_leaf_vector":"1"}},{"base_weights":[-1.7892083E-2,-9.830258E-1,6.3381374E-1,-1.0010877E0,9.321217E-2,1.0347562E-1,8.623184E-2,-8.4696E-2,-4.3162435E-2,7.3522076E-2,-8.93673E-2],"categories":[],"categories_nodes":[],"categories_segments":[],"categories_sizes":[],"default_left":[0,0,0,0,0,0,0,0,0,0,0],"id":15,"left_children":[1,3,5,7,-1,-1,9,-1,-1,-1,-1],"loss_changes":[1.4266354E3,3.6638794E1,4.889353E2,2.3551025E1,0E0,0E0,7.4347406E2,0E0,0E0,0E0,0E0],"parents":[2147483647,0,0,1,1,2,2,3,3,6,6],"right_children":[2,4,6,8,-1,-1,10,-1,-1,-1,-1],"split_conditions":[2E0,1E0,1E0,1E0,9.321217E-2,1.0347562E-1,1E0,-8.4696E-2,-4.3162435E-2,7.3522076E-2,-8.93673E-2],"split_indices":[11,24,7,7,0,0,29,0,0,0,0],"split_type":[0,0,0,0,0,0,0,0,0,0,0],"sum_hessian":[2.2661707E3,9.132294E2,1.3529413E3,9.061445E2,7.084904E0,6.1306494E2,7.398764E2,8.044393E2,1.01705185E2,4.373985E2,3.0247787E2],"tree_param":{"num_deleted":"0","num_feature":"34","num_nodes":"11","size_leaf_vector":"1"}},{"base_weights":[-2.5214557E-2,-9.681528E-1,6.1061686E-1,-9.8697364E-1,9.118608E-2,1.01153985E-1,7.3101856E-2,-8.001406E-2,9.663084E-2,7.0025735E-2,-8.8519916E-2],"categories":[],"categories_nodes":[],"categories_segments":[],"categories_sizes":[],"default_left":[0,0,0,0,0,0,0,0,0,0,0],"id":16,"left_children":[1,3,5,7,-1,-1,9,-1,-1,-1,-1],"loss_changes":[1.2852534E3,3.5377014E1,4.4987088E2,2.6019043E1,0E0,0E0,6.669174E2,0E0,0E0,0E0,0E0],"parents":[2147483647,0,0,1,1,2,2,3,3,6,6],"right_children":[2,4,6,8,-1,-1,10,-1,-1,-1,-1],"split_conditions":[2E0,1E0,1E0,1E0,9.118608E-2,1.01153985E-1,1E0,-8.001406E-2,9.663084E-2,7.0025735E-2,-8.8519916E-2],"split_indices":[11,24,7,23,0,0,29,0,0,0,0],"split_type":[0,0,0,0,0,0,0,0,0,0,0],"sum_hessian":[2.1417117E3,8.6233936E2,1.2793723E3,8.552353E2,7.104067E0,5.7663196E2,7.027403E2,8.5066284E2,4.5724316E0,4.1843207E2,2.8430823E2],"tree_param":{"num_deleted":"0","num_feature":"34","num_nodes":"11","size_leaf_vector":"1"}},{"base_weights":[-9.874911E-3,-9.4943184E-1,6.043811E-1,-9.679033E-1,8.84905E-2,7.4666035E-1,-8.76421E-2,-5.7494026E-2,-8.688195E-2,-1.0161218E-2,7.642856E-2],"categories":[],"categories_nodes":[],"categories_segments":[],"categories_sizes":[],"default_left":[0,0,0,0,0,0,0,0,0,0,0],"id":17,"left_children":[1,3,5,7,-1,9,-1,-1,-1,-1,-1],"loss_changes":[1.1668865E3,3.1419128E1,2.965178E2,2.255603E1,0E0,2.0593304E2,0E0,0E0,0E0,0E0,0E0],"parents":[2147483647,0,0,1,1,2,2,3,3,5,5],"right_children":[2,4,6,8,-1,10,-1,-1,-1,-1,-1],"split_conditions":[2E0,1E0,1.139E3,3E0,8.84905E-2,4.9254122E-1,-8.76421E-2,-5.7494026E-2,-8.688195E-2,-1.0161218E-2,7.642856E-2],"split_indices":[11,24,30,0,0,31,0,0,0,0,0],"split_type":[0,0,0,0,0,0,0,0,0,0,0],"sum_hessian":[2.0198892E3,7.9829034E2,1.2215989E3,7.9170514E2,6.58521E0,1.1277675E3,9.3831406E1,2.5685065E2,5.348545E2,2.1752492E2,9.102425E2],"tree_param":{"num_deleted":"0","num_feature":"34","num_nodes":"11","size_leaf_vector":"1"}},{"base_weights":[-1.8225506E-2,-9.3548036E-1,5.634585E-1,-6.0305274E-1,-8.6301014E-2,9.8081484E-2,3.9308317E-2,-8.609688E-2,1.2287427E-2,4.2820077E-2,-1.1658122E-1],"categories":[],"categories_nodes":[],"categories_segments":[],"categories_sizes":[],"default_left":[0,0,0,0,0,0,0,0,0,0,0],"id":18,"left_children":[1,3,5,7,-1,-1,9,-1,-1,-1,-1],"loss_changes":[1.0303706E3,3.504425E1,4.1035474E2,8.178705E1,0E0,0E0,4.912576E2,0E0,0E0,0E0,0E0],"parents":[2147483647,0,0,1,1,2,2,3,3,6,6],"right_children":[2,4,6,8,-1,-1,10,-1,-1,-1,-1],"split_conditions":[2E0,1E0,1E0,1E0,-8.6301014E-2,9.8081484E-2,1E0,-8.609688E-2,1.2287427E-2,4.2820077E-2,-1.1658122E-1],"split_indices":[11,12,7,11,0,0,27,0,0,0,0],"split_type":[0,0,0,0,0,0,0,0,0,0,0],"sum_hessian":[1.9291635E3,7.484026E2,1.1807609E3,2.2698538E2,5.214172E2,5.20931E2,6.5982983E2,1.3939452E2,8.759087E1,4.960789E2,1.6375096E2],"tree_param":{"num_deleted":"0","num_feature":"34","num_nodes":"11","size_leaf_vector":"1"}},{"base_weights":[-1.4437461E-2,-9.182519E-1,5.4299504E-1,-1.0008808E0,-3.2480097E-1,9.637323E-2,3.44586E-2,-8.114321E-2,7.8407496E-2,-8.472626E-2,3.7986122E-2,6.280445E-2,-8.754871E-2],"categories":[],"categories_nodes":[],"categories_segments":[],"categories_sizes":[],"default_left":[0,0,0,0,0,0,0,0,0,0,0,0,0],"id":19,"left_children":[1,3,5,7,9,-1,11,-1,-1,-1,-1,-1,-1],"loss_changes":[9.2989355E2,3.4200745E1,3.8409653E2,1.7398438E1,5.1897373E1,0E0,5.486633E2,0E0,0E0,0E0,0E0,0E0,0E0],"parents":[2147483647,0,0,1,1,2,2,3,3,4,4,6,6],"right_children":[2,4,6,8,10,-1,12,-1,-1,-1,-1,-1,-1],"split_conditions":[2E0,1E0,1E0,1E0,1.44E2,9.637323E-2,1E0,-8.114321E-2,7.8407496E-2,-8.472626E-2,3.7986122E-2,6.280445E-2,-8.754871E-2],"split_indices":[11,7,7,24,30,0,29,0,0,0,0,0,0],"split_type":[0,0,0,0,0,0,0,0,0,0,0,0,0],"sum_hessian":[1.8437128E3,7.030876E2,1.1406252E3,6.165552E2,8.653241E1,4.9508624E2,6.4553894E2,6.128945E2,3.6607215E0,4.494037E1,4.1592037E1,3.8790775E2,2.5763123E2],"tree_param":{"num_deleted":"0","num_feature":"34","num_nodes":"13","size_leaf_vector":"1"}},{"base_weights":[-2.3658361E-2,-9.120391E-1,5.21051E-1,-5.6672424E-1,-8.53026E-2,2.0790774E-1,9.948071E-2,-8.496935E-2,1.125306E-2,-1.5227874E-2,9.5078856E-2],"categories":[],"categories_nodes":[],"categories_segments":[],"categories_sizes":[],"default_left":[0,0,0,0,0,0,0,0,0,0,0],"id":20,"left_children":[1,3,5,7,-1,9,-1,-1,-1,-1,-1],"loss_changes":[8.414616E2,3.459851E1,2.4361389E2,7.240999E1,0E0,2.943734E2,0E0,0E0,0E0,0E0,0E0],"parents":[2147483647,0,0,1,1,2,2,3,3,5,5],"right_children":[2,4,6,8,-1,10,-1,-1,-1,-1,-1],"split_conditions":[2E0,1E0,1E0,1E0,-8.53026E-2,1E0,9.948071E-2,-8.496935E-2,1.125306E-2,-1.5227874E-2,9.5078856E-2],"split_indices":[11,12,24,11,0,9,0,0,0,0,0],"split_type":[0,0,0,0,0,0,0,0,0,0,0],"sum_hessian":[1.7369008E3,6.599297E2,1.076971E3,2.0520282E2,4.547269E2,7.522168E2,3.247542E2,1.20390396E2,8.4812416E1,5.355231E2,2.1669374E2],"tree_param":{"num_deleted":"0","num_feature":"34","num_nodes":"11","size_leaf_vector":"1"}},{"base_weights":[-1.4878017E-2,-8.8665104E-1,5.0437194E-1,-5.1941276E-1,-8.483921E-2,9.390214E-2,7.661091E-3,-8.446248E-2,1.3680625E-2,5.7876956E-2,-8.674776E-2],"categories":[],"categories_nodes":[],"categories_segments":[],"categories_sizes":[],"default_left":[0,0,0,0,0,0,0,0,0,0,0],"id":21,"left_children":[1,3,5,7,-1,-1,9,-1,-1,-1,-1],"loss_changes":[7.527714E2,3.907852E1,3.4653027E2,7.476239E1,0E0,0E0,4.6922598E2,0E0,0E0,0E0,0E0],"parents":[2147483647,0,0,1,1,2,2,3,3,6,6],"right_children":[2,4,6,8,-1,-1,10,-1,-1,-1,-1],"split_conditions":[2E0,1E0,1E0,1E0,-8.483921E-2,9.390214E-2,1E0,-8.446248E-2,1.3680625E-2,5.7876956E-2,-8.674776E-2],"split_indices":[11,12,7,11,0,0,29,0,0,0,0],"split_type":[0,0,0,0,0,0,0,0,0,0,0],"sum_hessian":[1.6609777E3,6.197562E2,1.0412214E3,2.0039851E2,4.193577E2,4.429311E2,5.9829034E2,1.1248382E2,8.7914696E1,3.616015E2,2.3668884E2],"tree_param":{"num_deleted":"0","num_feature":"34","num_nodes":"11","size_leaf_vector":"1"}},{"base_weights":[-1.6893635E-2,-8.7581265E-1,4.9153057E-1,-5.4272753E-1,-8.450319E-2,9.2639856E-2,1.5139732E-2,-8.412406E-2,1.8048296E-2,5.5420015E-2,-8.613392E-2],"categories":[],"categories_nodes":[],"categories_segments":[],"categories_sizes":[],"default_left":[0,0,0,0,0,0,0,0,0,0,0],"id":22,"left_children":[1,3,5,7,-1,-1,9,-1,-1,-1,-1],"loss_changes":[6.853414E2,3.450589E1,3.1299023E2,8.121222E1,0E0,0E0,4.2682727E2,0E0,0E0,0E0,0E0],"parents":[2147483647,0,0,1,1,2,2,3,3,6,6],"right_children":[2,4,6,8,-1,-1,10,-1,-1,-1,-1],"split_conditions":[2E0,1E0,1E0,1E0,-8.450319E-2,9.2639856E-2,1E0,-8.412406E-2,1.8048296E-2,5.5420015E-2,-8.613392E-2],"split_indices":[11,16,7,11,0,0,29,0,0,0,0],"split_type":[0,0,0,0,0,0,0,0,0,0,0],"sum_hessian":[1.5673958E3,5.825418E2,9.84854E2,2.0612637E2,3.7641544E2,4.099316E2,5.7492236E2,1.2378308E2,8.234329E1,3.549783E2,2.1994408E2],"tree_param":{"num_deleted":"0","num_feature":"34","num_nodes":"11","size_leaf_vector":"1"}},{"base_weights":[-1.8047549E-2,-8.520336E-1,4.7008747E-1,-4.5470756E-1,-8.404763E-2,9.150243E-2,-5.2385726E-3,-8.353978E-2,1.7137561E-2,3.7464365E-2,-1.2593232E-1],"categories":[],"categories_nodes":[],"categories_segments":[],"categories_sizes":[],"default_left":[0,0,0,0,0,0,0,0,0,0,0],"id":23,"left_children":[1,3,5,7,-1,-1,9,-1,-1,-1,-1],"loss_changes":[6.023577E2,4.2620697E1,2.9889362E2,7.2705246E1,0E0,0E0,4.080588E2,0E0,0E0,0E0,0E0],"parents":[2147483647,0,0,1,1,2,2,3,3,6,6],"right_children":[2,4,6,8,-1,-1,10,-1,-1,-1,-1],"split_conditions":[2E0,1E0,1E0,1E0,-8.404763E-2,9.150243E-2,1E0,-8.353978E-2,1.7137561E-2,3.7464365E-2,-1.2593232E-1],"split_indices":[11,12,7,11,0,0,27,0,0,0,0],"split_type":[0,0,0,0,0,0,0,0,0,0,0],"sum_hessian":[1.477655E3,5.452838E2,9.3237115E2,1.827958E2,3.62488E2,3.8512146E2,5.472497E2,9.686529E1,8.593053E1,4.2090897E2,1.26340744E2],"tree_param":{"num_deleted":"0","num_feature":"34","num_nodes":"11","size_leaf_vector":"1"}},{"base_weights":[-1.9784918E-2,-8.4716403E-1,4.5889685E-1,-4.6347222E-1,-8.3685756E-2,9.047298E-2,6.735876E-3,-8.313007E-2,1.1224252E-2,-1.07111484E-1,4.4149835E-2],"categories":[],"categories_nodes":[],"categories_segments":[],"categories_sizes":[],"default_left":[0,0,0,0,0,0,0,0,0,0,0],"id":24,"left_children":[1,3,5,7,-1,-1,9,-1,-1,-1,-1],"loss_changes":[5.580176E2,3.8925323E1,2.7121317E2,6.2046013E1,0E0,0E0,3.9288205E2,0E0,0E0,0E0,0E0],"parents":[2147483647,0,0,1,1,2,2,3,3,6,6],"right_children":[2,4,6,8,-1,-1,10,-1,-1,-1,-1],"split_conditions":[2E0,1E0,1E0,1E0,-8.3685756E-2,9.047298E-2,3E0,-8.313007E-2,1.1224252E-2,-1.07111484E-1,4.4149835E-2],"split_indices":[11,12,7,11,0,0,11,0,0,0,0],"split_type":[0,0,0,0,0,0,0,0,0,0,0],"sum_hessian":[1.4069713E3,5.1538416E2,8.915872E2,1.7709653E2,3.382876E2,3.5800626E2,5.3358093E2,9.0290436E1,8.680608E1,1.534198E2,3.8016116E2],"tree_param":{"num_deleted":"0","num_feature":"34","num_nodes":"11","size_leaf_vector":"1"}},{"base_weights":[-1.6752286E-2,-8.193681E-1,4.362725E-1,-8.005571E-2,-9.439009E-1,8.9517474E-2,-1.1529383E-3,-8.216308E-2,2.0386991E-1,-7.6472685E-2,7.743988E-2,-1.0506419E-1,4.1419335E-2],"categories":[],"categories_nodes":[],"categories_segments":[],"categories_sizes":[],"default_left":[0,0,0,0,0,0,0,0,0,0,0,0,0],"id":25,"left_children":[1,3,5,7,9,-1,11,-1,-1,-1,-1,-1,-1],"loss_changes":[4.901984E2,4.4706482E1,2.5735358E2,1.7987044E2,1.0479858E1,0E0,3.5897983E2,0E0,0E0,0E0,0E0,0E0,0E0],"parents":[2147483647,0,0,1,1,2,2,3,3,4,4,6,6],"right_children":[2,4,6,8,10,-1,12,-1,-1,-1,-1,-1,-1],"split_conditions":[2E0,1E0,1E0,1E0,1E0,8.9517474E-2,3E0,-8.216308E-2,2.0386991E-1,-7.6472685E-2,7.743988E-2,-1.0506419E-1,4.1419335E-2],"split_indices":[11,31,7,11,23,0,11,0,0,0,0,0,0],"split_type":[0,0,0,0,0,0,0,0,0,0,0,0,0],"sum_hessian":[1.3461793E3,4.8539862E2,8.6078064E2,7.021238E1,4.1518625E2,3.3554025E2,5.252404E2,5.206384E1,1.8148544E1,4.1309186E2,2.0943956E0,1.4841261E2,3.7682782E2],"tree_param":{"num_deleted":"0","num_feature":"34","num_nodes":"13","size_leaf_vector":"1"}},{"base_weights":[-1.1794227E-2,-8.08548E-1,4.3033662E-1,-1.0318392E-1,-9.3565536E-1,8.867146E-2,1.9429522E-2,-8.200609E-2,2.0288195E-1,-7.593762E-2,7.750668E-2,4.01797E-2,-1.20334424E-1],"categories":[],"categories_nodes":[],"categories_segments":[],"categories_sizes":[],"default_left":[0,0,0,0,0,0,0,0,0,0,0,0,0],"id":26,"left_children":[1,3,5,7,9,-1,11,-1,-1,-1,-1,-1,-1],"loss_changes":[4.521687E2,4.097348E1,2.2998366E2,1.755094E2,1.0943634E1,0E0,3.7963034E2,0E0,0E0,0E0,0E0,0E0,0E0],"parents":[2147483647,0,0,1,1,2,2,3,3,4,4,6,6],"right_children":[2,4,6,8,10,-1,12,-1,-1,-1,-1,-1,-1],"split_conditions":[2E0,1E0,1E0,1.33E2,1E0,8.867146E-2,1E0,-8.200609E-2,2.0288195E-1,-7.593762E-2,7.750668E-2,4.01797E-2,-1.20334424E-1],"split_indices":[11,31,7,30,23,0,27,0,0,0,0,0,0],"split_type":[0,0,0,0,0,0,0,0,0,0,0,0,0],"sum_hessian":[1.2816001E3,4.570793E2,8.245208E2,7.006663E1,3.870127E2,3.1048227E2,5.140385E2,5.2381157E1,1.7685474E1,3.8477368E2,2.2390018E0,3.9085184E2,1.2318668E2],"tree_param":{"num_deleted":"0","num_feature":"34","num_nodes":"13","size_leaf_vector":"1"}},{"base_weights":[-1.4956726E-2,-3.1264883E-1,9.352432E-2,-8.211883E-1,7.8804106E-2,-3.378798E-2,-8.284626E-2,8.817645E-2,-4.326307E-2],"categories":[],"categories_nodes":[],"categories_segments":[],"categories_sizes":[],"default_left":[0,0,0,0,0,0,0,0,0],"id":27,"left_children":[1,3,-1,5,7,-1,-1,-1,-1],"loss_changes":[4.2812164E2,1.9327274E2,0E0,3.5666473E1,3.4891812E2,0E0,0E0,0E0,0E0],"parents":[2147483647,0,0,1,1,3,3,4,4],"right_children":[2,4,-1,6,8,-1,-1,-1,-1],"split_conditions":[1E0,2E0,9.352432E-2,1E0,1E0,-3.378798E-2,-8.284626E-2,8.817645E-2,-4.326307E-2],"split_indices":[24,11,0,12,7,0,0,0,0],"split_type":[0,0,0,0,0,0,0,0,0],"sum_hessian":[1.2125936E3,9.6955695E2,2.4303671E2,4.2123267E2,5.483243E2,1.4830493E2,2.7292773E2,2.0648584E2,3.4183844E2],"tree_param":{"num_deleted":"0","num_feature":"34","num_nodes":"9","size_leaf_vector":"1"}},{"base_weights":[-1.5390527E-2,-2.9908797E-1,9.239415E-2,-8.150807E-1,8.384932E-2,-7.4921E-2,-9.314452E-3,8.743596E-2,-3.9011393E-2],"categories":[],"categories_nodes":[],"categories_segments":[],"categories_sizes":[],"default_left":[0,0,0,0,0,0,0,0,0],"id":28,"left_children":[1,3,-1,5,7,-1,-1,-1,-1],"loss_changes":[3.845357E2,1.842573E2,0E0,3.3587677E1,3.0962625E2,0E0,0E0,0E0,0E0],"parents":[2147483647,0,0,1,1,3,3,4,4],"right_children":[2,4,-1,6,8,-1,-1,-1,-1],"split_conditions":[1E0,2E0,9.239415E-2,1E0,1E0,-7.4921E-2,-9.314452E-3,8.743596E-2,-3.9011393E-2],"split_indices":[24,11,0,7,7,0,0,0,0],"split_type":[0,0,0,0,0,0,0,0,0],"sum_hessian":[1.1561436E3,9.3116394E2,2.2497964E2,3.9618796E2,5.3497595E2,3.3723328E2,5.8954666E1,1.9310039E2,3.418756E2],"tree_param":{"num_deleted":"0","num_feature":"34","num_nodes":"9","size_leaf_vector":"1"}},{"base_weights":[-1.3310295E-2,-2.8531238E-1,9.118221E-2,-7.91829E-1,7.7904105E-2,-2.9958054E-2,-8.2355775E-2,8.673829E-2,-3.6898542E-2],"categories":[],"categories_nodes":[],"categories_segments":[],"categories_sizes":[],"default_left":[0,0,0,0,0,0,0,0,0],"id":29,"left_children":[1,3,-1,5,7,-1,-1,-1,-1],"loss_changes":[3.4701636E2,1.6475488E2,0E0,3.6698257E1,2.8384677E2,0E0,0E0,0E0,0E0],"parents":[2147483647,0,0,1,1,3,3,4,4],"right_children":[2,4,-1,6,8,-1,-1,-1,-1],"split_conditions":[1E0,2E0,9.118221E-2,1E0,1E0,-2.9958054E-2,-8.2355775E-2,8.673829E-2,-3.6898542E-2],"split_indices":[24,11,0,12,7,0,0,0,0],"split_type":[0,0,0,0,0,0,0,0,0],"sum_hessian":[1.1043712E3,8.941925E2,2.1017865E2,3.729384E2,5.2125415E2,1.3623349E2,2.367049E2,1.8148749E2,3.3976666E2],"tree_param":{"num_deleted":"0","num_feature":"34","num_nodes":"9","size_leaf_vector":"1"}},{"base_weights":[-1.4477024E-2,-2.732268E-1,9.0229936E-2,-7.796896E-1,8.083741E-2,-2.9998567E-2,-8.266779E-2,-7.401647E-2,3.2048505E-2],"categories":[],"categories_nodes":[],"categories_segments":[],"categories_sizes":[],"default_left":[0,0,0,0,0,0,0,0,0],"id":30,"left_children":[1,3,-1,5,7,-1,-1,-1,-1],"loss_changes":[3.1149753E2,1.5413086E2,0E0,3.5912384E1,1.6333621E2,0E0,0E0,0E0,0E0],"parents":[2147483647,0,0,1,1,3,3,4,4],"right_children":[2,4,-1,6,8,-1,-1,-1,-1],"split_conditions":[1E0,2E0,9.0229936E-2,2.37E2,1E0,-2.9998567E-2,-8.266779E-2,-7.401647E-2,3.2048505E-2],"split_indices":[24,11,0,30,31,0,0,0,0],"split_type":[0,0,0,0,0,0,0,0,0],"sum_hessian":[1.0517981E3,8.581765E2,1.936216E2,3.526025E2,5.0557404E2,1.3680704E2,2.1579546E2,1.2148132E2,3.840927E2],"tree_param":{"num_deleted":"0","num_feature":"34","num_nodes":"9","size_leaf_vector":"1"}},{"base_weights":[-1.3270574E-2,-7.417155E-1,3.4580776E-1,-2.9442868E-1,-8.1931494E-2,8.579599E-2,-1.328916E-2,-8.139746E-2,2.8195249E-2,3.4921654E-2,-1.1513146E-1],"categories":[],"categories_nodes":[],"categories_segments":[],"categories_sizes":[],"default_left":[0,0,0,0,0,0,0,0,0,0,0],"id":31,"left_children":[1,3,5,7,-1,-1,9,-1,-1,-1,-1],"loss_changes":[2.6655823E2,4.2203827E1,1.7813425E2,6.192421E1,0E0,0E0,2.942698E2,0E0,0E0,0E0,0E0],"parents":[2147483647,0,0,1,1,2,2,3,3,6,6],"right_children":[2,4,6,8,-1,-1,10,-1,-1,-1,-1],"split_conditions":[2E0,1E0,1E0,1E0,-8.1931494E-2,8.579599E-2,1E0,-8.139746E-2,2.8195249E-2,3.4921654E-2,-1.1513146E-1],"split_indices":[11,12,7,11,0,0,27,0,0,0,0],"split_type":[0,0,0,0,0,0,0,0,0,0,0],"sum_hessian":[1.01709454E3,3.3547235E2,6.816222E2,1.3063142E2,2.0484093E2,2.2478244E2,4.5683975E2,6.1413475E1,6.921795E1,3.478108E2,1.0902895E2],"tree_param":{"num_deleted":"0","num_feature":"34","num_nodes":"11","size_leaf_vector":"1"}},{"base_weights":[-1.0770918E-2,-2.6097813E-1,8.9094736E-2,-7.4463505E-1,5.6117885E-2,-2.616242E-2,-8.230689E-2,8.552081E-2,-3.324231E-2],"categories":[],"categories_nodes":[],"categories_segments":[],"categories_sizes":[],"default_left":[0,0,0,0,0,0,0,0,0],"id":32,"left_children":[1,3,-1,5,7,-1,-1,-1,-1],"loss_changes":[2.7457855E2,1.2246956E2,0E0,3.718947E1,2.312292E2,0E0,0E0,0E0,0E0],"parents":[2147483647,0,0,1,1,3,3,4,4],"right_children":[2,4,-1,6,8,-1,-1,-1,-1],"split_conditions":[1E0,2E0,8.9094736E-2,2.37E2,1E0,-2.616242E-2,-8.230689E-2,8.552081E-2,-3.324231E-2],"split_indices":[24,11,0,30,7,0,0,0,0],"split_type":[0,0,0,0,0,0,0,0,0],"sum_hessian":[9.739104E2,7.972736E2,1.766368E2,3.151843E2,4.8208932E2,1.2850696E2,1.8667734E2,1.5276024E2,3.293291E2],"tree_param":{"num_deleted":"0","num_feature":"34","num_nodes":"9","size_leaf_vector":"1"}},{"base_weights":[-1.969173E-2,-4.4391468E-1,6.100596E-1,-7.174011E-1,7.888191E-2,9.550176E-1,-8.230727E-2,-8.8135125E-3,-7.428453E-2,-6.370788E-2,8.43508E-2,-3.2907296E-2,9.1693416E-2],"categories":[],"categories_nodes":[],"categories_segments":[],"categories_sizes":[],"default_left":[0,0,0,0,0,0,0,0,0,0,0,0,0],"id":33,"left_children":[1,3,5,7,9,11,-1,-1,-1,-1,-1,-1,-1],"loss_changes":[2.4944556E2,7.981916E1,2.1345895E2,4.687314E1,1.6519638E2,8.1698E1,0E0,0E0,0E0,0E0,0E0,0E0,0E0],"parents":[2147483647,0,0,1,1,2,2,3,3,4,4,5,5],"right_children":[2,4,6,8,10,12,-1,-1,-1,-1,-1,-1,-1],"split_conditions":[3E0,1E0,1E0,2E0,1E0,4.9254122E-1,-8.230727E-2,-8.8135125E-3,-7.428453E-2,-6.370788E-2,8.43508E-2,-3.2907296E-2,9.1693416E-2],"split_indices":[11,26,29,0,9,31,0,0,0,0,0,0,0],"split_type":[0,0,0,0,0,0,0,0,0,0,0,0,0],"sum_hessian":[9.316974E2,5.56867E2,3.7483035E2,3.6536453E2,1.9150246E2,3.099987E2,6.4831665E1,9.466184E1,2.707027E2,1.0103583E2,9.046663E1,3.790419E1,2.720945E2],"tree_param":{"num_deleted":"0","num_feature":"34","num_nodes":"13","size_leaf_vector":"1"}},{"base_weights":[-1.2407142E-2,-4.2401728E-1,6.069963E-1,-6.8102473E-1,8.6797975E-2,9.4029105E-1,-8.193152E-2,-7.792032E-2,5.040795E-3,8.389825E-2,-6.567214E-2,9.2757784E-2,1.1036871E-2],"categories":[],"categories_nodes":[],"categories_segments":[],"categories_sizes":[],"default_left":[0,0,0,0,0,0,0,0,0,0,0,0,0],"id":34,"left_children":[1,3,5,7,9,11,-1,-1,-1,-1,-1,-1,-1],"loss_changes":[2.2793752E2,7.05707E1,1.950103E2,7.797644E1,1.5860706E2,5.2050964E1,0E0,0E0,0E0,0E0,0E0,0E0,0E0],"parents":[2147483647,0,0,1,1,2,2,3,3,4,4,5,5],"right_children":[2,4,6,8,10,12,-1,-1,-1,-1,-1,-1,-1],"split_conditions":[3E0,1E0,1E0,1E0,1E0,1E0,-8.193152E-2,-7.792032E-2,5.040795E-3,8.389825E-2,-6.567214E-2,9.2757784E-2,1.1036871E-2],"split_indices":[11,26,29,8,7,25,0,0,0,0,0,0,0],"split_type":[0,0,0,0,0,0,0,0,0,0,0,0,0],"sum_hessian":[8.920288E2,5.3609485E2,3.5593393E2,3.5643024E2,1.7966461E2,2.9589627E2,6.0037655E1,2.5550908E2,1.00921165E2,8.71512E1,9.251341E1,2.3205746E2,6.3838814E1],"tree_param":{"num_deleted":"0","num_feature":"34","num_nodes":"13","size_leaf_vector":"1"}},{"base_weights":[-9.774406E-3,-2.4885342E-1,8.746986E-2,-8.127345E-2,-7.153604E-2,2.2897994E-2,-7.058782E-2],"categories":[],"categories_nodes":[],"categories_segments":[],"categories_sizes":[],"default_left":[0,0,0,0,0,0,0],"id":35,"left_children":[1,3,-1,-1,5,-1,-1],"loss_changes":[2.2289195E2,9.439637E1,0E0,0E0,1.642099E2,0E0,0E0],"parents":[2147483647,0,0,1,1,4,4],"right_children":[2,4,-1,-1,6,-1,-1],"split_conditions":[1E0,1E0,8.746986E-2,-8.127345E-2,1E0,2.2897994E-2,-7.058782E-2],"split_indices":[24,11,0,0,21,0,0],"split_type":[0,0,0,0,0,0,0],"sum_hessian":[8.4309015E2,6.935544E2,1.4953574E2,1.2933392E2,5.6422046E2,3.919321E2,1.7228838E2],"tree_param":{"num_deleted":"0","num_feature":"34","num_nodes":"7","size_leaf_vector":"1"}},{"base_weights":[-1.9284654E-4,-2.1931876E-1,8.6773194E-2,-3.9615896E-2,-9.909442E-1,-8.106729E-2,1.8164493E-2,-1.200454E-1,2.8107637E-3],"categories":[],"categories_nodes":[],"categories_segments":[],"categories_sizes":[],"default_left":[0,0,0,0,0,0,0,0,0],"id":36,"left_children":[1,3,-1,5,7,-1,-1,-1,-1],"loss_changes":[1.9535324E2,9.476237E1,0E0,1.4449452E2,6.756284E1,0E0,0E0,0E0,0E0],"parents":[2147483647,0,0,1,1,3,3,4,4],"right_children":[2,4,-1,6,8,-1,-1,-1,-1],"split_conditions":[1E0,1E0,8.6773194E-2,1E0,1E0,-8.106729E-2,1.8164493E-2,-1.200454E-1,2.8107637E-3],"split_indices":[24,25,0,11,8,0,0,0,0],"split_type":[0,0,0,0,0,0,0,0,0],"sum_hessian":[8.197765E2,6.826822E2,1.370943E2,5.545784E2,1.2810373E2,1.18626434E2,4.3595203E2,8.5283485E1,4.2820244E1],"tree_param":{"num_deleted":"0","num_feature":"34","num_nodes":"9","size_leaf_vector":"1"}},{"base_weights":[-9.341282E-3,-2.1842217E-1,8.6170726E-2,-4.2700503E-2,-9.7662026E-1,-8.088023E-2,1.6395612E-2,-1.9095346E-2,-1.2701102E-1],"categories":[],"categories_nodes":[],"categories_segments":[],"categories_sizes":[],"default_left":[0,0,0,0,0,0,0,0,0],"id":37,"left_children":[1,3,-1,5,7,-1,-1,-1,-1],"loss_changes":[1.8145345E2,8.92022E1,0E0,1.3086029E2,5.6427353E1,0E0,0E0,0E0,0E0],"parents":[2147483647,0,0,1,1,3,3,4,4],"right_children":[2,4,-1,6,8,-1,-1,-1,-1],"split_conditions":[1E0,1E0,8.6170726E-2,1E0,1E0,-8.088023E-2,1.6395612E-2,-1.9095346E-2,-1.2701102E-1],"split_indices":[24,25,0,11,7,0,0,0,0],"split_type":[0,0,0,0,0,0,0,0,0],"sum_hessian":[7.9675134E2,6.688392E2,1.2791218E2,5.438513E2,1.2498786E2,1.10135506E2,4.337158E2,5.724431E1,6.774355E1],"tree_param":{"num_deleted":"0","num_feature":"34","num_nodes":"9","size_leaf_vector":"1"}},{"base_weights":[-1.6815476E-2,-4.0167853E-1,5.8998734E-1,-1.5974593E-1,-8.316361E-1,9.073288E-1,-8.114849E-2,-6.500357E-2,8.4135264E-2,8.294546E-2,-1.0452121E-1,-3.3624902E-2,8.890293E-2],"categories":[],"categories_nodes":[],"categories_segments":[],"categories_sizes":[],"default_left":[0,0,0,0,0,0,0,0,0,0,0,0,0],"id":38,"left_children":[1,3,5,7,9,11,-1,-1,-1,-1,-1,-1,-1],"loss_changes":[1.817792E2,4.9408615E1,1.5472577E2,2.4285512E2,1.5330716E2,6.890411E1,0E0,0E0,0E0,0E0,0E0,0E0,0E0],"parents":[2147483647,0,0,1,1,2,2,3,3,4,4,5,5],"right_children":[2,4,6,8,10,12,-1,-1,-1,-1,-1,-1,-1],"split_conditions":[3E0,1E0,1E0,2E0,2E0,4.9254122E-1,-8.114849E-2,-6.500357E-2,8.4135264E-2,8.294546E-2,-1.0452121E-1,-3.3624902E-2,8.890293E-2],"split_indices":[11,7,29,11,0,31,0,0,0,0,0,0,0],"split_type":[0,0,0,0,0,0,0,0,0,0,0,0,0],"sum_hessian":[7.763629E2,4.7526523E2,3.010977E2,3.0501053E2,1.702547E2,2.5173799E2,4.9359688E1,1.9841908E2,1.0659146E2,3.426249E1,1.359922E2,3.3381855E1,2.1835614E2],"tree_param":{"num_deleted":"0","num_feature":"34","num_nodes":"13","size_leaf_vector":"1"}},{"base_weights":[-8.972794E-3,-2.034851E-1,8.5149966E-2,-3.6885172E-2,-9.138999E-1,2.5964007E-2,-3.610745E-2,-1.1366886E-1,3.400822E-3],"categories":[],"categories_nodes":[],"categories_segments":[],"categories_sizes":[],"default_left":[0,0,0,0,0,0,0,0,0],"id":39,"left_children":[1,3,-1,5,7,-1,-1,-1,-1],"loss_changes":[1.5249162E2,7.314543E1,0E0,7.5329414E1,5.6989136E1,0E0,0E0,0E0,0E0],"parents":[2147483647,0,0,1,1,3,3,4,4],"right_children":[2,4,-1,6,8,-1,-1,-1,-1],"split_conditions":[1E0,1E0,8.5149966E-2,5.78E2,1E0,2.5964007E-2,-3.610745E-2,-1.1366886E-1,3.400822E-3],"split_indices":[24,25,0,30,8,0,0,0,0],"split_type":[0,0,0,0,0,0,0,0,0],"sum_hessian":[7.2835895E2,6.1730176E2,1.1105718E2,5.0088965E2,1.1641211E2,2.676755E2,2.3321414E2,7.576566E1,4.0646446E1],"tree_param":{"num_deleted":"0","num_feature":"34","num_nodes":"9","size_leaf_vector":"1"}},{"base_weights":[-7.2789507E-4,-3.6347178E-1,5.88729E-1,-8.0634505E-2,-1.7686659E-1,8.922347E-1,-8.059936E-2,9.927525E-2,-3.2425564E-2,-2.1899963E-2,8.78313E-2],"categories":[],"categories_nodes":[],"categories_segments":[],"categories_sizes":[],"default_left":[0,0,0,0,0,0,0,0,0,0,0],"id":40,"left_children":[1,3,5,-1,7,9,-1,-1,-1,-1,-1],"loss_changes":[1.52875E2,5.3047997E1,1.3285104E2,0E0,1.1206422E2,5.530516E1,0E0,0E0,0E0,0E0,0E0],"parents":[2147483647,0,0,1,1,2,2,4,4,5,5],"right_children":[2,4,6,-1,8,10,-1,-1,-1,-1,-1],"split_conditions":[3E0,1E0,1E0,-8.0634505E-2,2E0,4.9254122E-1,-8.059936E-2,9.927525E-2,-3.2425564E-2,-2.1899963E-2,8.78313E-2],"split_indices":[11,11,29,0,0,31,0,0,0,0,0],"split_type":[0,0,0,0,0,0,0,0,0,0,0],"sum_hessian":[7.1296344E2,4.4159512E2,2.7136835E2,9.8166374E1,3.4342874E2,2.2838434E2,4.298399E1,4.704288E1,2.9638586E2,3.4193115E1,1.9419124E2],"tree_param":{"num_deleted":"0","num_feature":"34","num_nodes":"11","size_leaf_vector":"1"}},{"base_weights":[-3.5333056E-3,-3.402721E-1,5.681066E-1,-8.0455884E-2,-1.6348244E-1,8.691025E-1,-8.031792E-2,-2.9222885E-2,8.695323E-2,-2.354922E-2,8.7421566E-2],"categories":[],"categories_nodes":[],"categories_segments":[],"categories_sizes":[],"default_left":[0,0,0,0,0,0,0,0,0,0,0],"id":41,"left_children":[1,3,5,-1,7,9,-1,-1,-1,-1,-1],"loss_changes":[1.337327E2,5.126694E1,1.2273993E2,0E0,8.7859856E1,5.6711838E1,0E0,0E0,0E0,0E0,0E0],"parents":[2147483647,0,0,1,1,2,2,4,4,5,5],"right_children":[2,4,6,-1,8,10,-1,-1,-1,-1,-1],"split_conditions":[3E0,1E0,1E0,-8.0455884E-2,1E0,4.9254122E-1,-8.031792E-2,-2.9222885E-2,8.695323E-2,-2.354922E-2,8.7421566E-2],"split_indices":[11,11,29,0,3,31,0,0,0,0,0],"split_type":[0,0,0,0,0,0,0,0,0,0,0],"sum_hessian":[6.9273517E2,4.361908E2,2.5654437E2,9.057666E1,3.4561414E2,2.1569402E2,4.085034E1,2.981957E2,4.7418407E1,3.4728386E1,1.8096564E2],"tree_param":{"num_deleted":"0","num_feature":"34","num_nodes":"11","size_leaf_vector":"1"}},{"base_weights":[-1.6504275E-2,-1.8909895E-1,8.396002E-2,-7.086625E-1,4.9379963E-2,-8.9240976E-2,-5.461535E-3,-8.006515E-2,2.2174256E-2],"categories":[],"categories_nodes":[],"categories_segments":[],"categories_sizes":[],"default_left":[0,0,0,0,0,0,0,0,0],"id":42,"left_children":[1,3,-1,5,7,-1,-1,-1,-1],"loss_changes":[1.2252678E2,7.1041824E1,0E0,4.691387E1,9.446833E1,0E0,0E0,0E0,0E0],"parents":[2147483647,0,0,1,1,3,3,4,4],"right_children":[2,4,-1,6,8,-1,-1,-1,-1],"split_conditions":[1E0,4.4020727E-2,8.396002E-2,1E0,1E0,-8.9240976E-2,-5.461535E-3,-8.006515E-2,2.2174256E-2],"split_indices":[24,33,0,8,11,0,0,0,0],"split_type":[0,0,0,0,0,0,0,0,0],"sum_hessian":[6.6387585E2,5.7207495E2,9.180091E1,1.7935358E2,3.927214E2,1.0922174E2,7.0131836E1,6.93965E1,3.233249E2],"tree_param":{"num_deleted":"0","num_feature":"34","num_nodes":"9","size_leaf_vector":"1"}},{"base_weights":[-5.1822397E-3,-1.6682671E-1,8.3586425E-2,3.8759097E-2,-7.804143E-1,-8.011263E-2,2.1877801E-2,-1.0507414E-1,-9.060269E-3],"categories":[],"categories_nodes":[],"categories_segments":[],"categories_sizes":[],"default_left":[0,0,0,0,0,0,0,0,0],"id":43,"left_children":[1,3,-1,5,7,-1,-1,-1,-1],"loss_changes":[1.1050212E2,7.119722E1,0E0,1.0367575E2,5.021743E1,0E0,0E0,0E0,0E0],"parents":[2147483647,0,0,1,1,3,3,4,4],"right_children":[2,4,-1,6,8,-1,-1,-1,-1],"split_conditions":[1E0,1E0,8.3586425E-2,1E0,1E0,-8.011263E-2,2.1877801E-2,-1.0507414E-1,-9.060269E-3],"split_indices":[24,22,0,11,8,0,0,0,0],"split_type":[0,0,0,0,0,0,0,0,0],"sum_hessian":[6.490244E2,5.631684E2,8.5855995E1,4.2253323E2,1.406352E2,7.718961E1,3.453436E2,7.763882E1,6.2996372E1],"tree_param":{"num_deleted":"0","num_feature":"34","num_nodes":"9","size_leaf_vector":"1"}},{"base_weights":[2.0642541E-3,-3.0893233E-1,5.587698E-1,-8.293622E-1,-9.744421E-2,8.5386986E-1,-7.991084E-2,-7.0992365E-2,7.200053E-2,-7.972789E-2,1.1507382E-2,-2.0533616E-2,8.603034E-2],"categories":[],"categories_nodes":[],"categories_segments":[],"categories_sizes":[],"default_left":[0,0,0,0,0,0,0,0,0,0,0,0,0],"id":44,"left_children":[1,3,5,7,9,11,-1,-1,-1,-1,-1,-1,-1],"loss_changes":[1.1011946E2,4.48341E1,1.0563957E2,1.2621124E1,6.3341175E1,4.7554672E1,0E0,0E0,0E0,0E0,0E0,0E0,0E0],"parents":[2147483647,0,0,1,1,2,2,3,3,4,4,5,5],"right_children":[2,4,6,8,10,12,-1,-1,-1,-1,-1,-1,-1],"split_conditions":[3E0,4.0956784E-2,1E0,1E0,1E0,4.9254122E-1,-7.991084E-2,-7.0992365E-2,7.200053E-2,-7.972789E-2,1.1507382E-2,-2.0533616E-2,8.603034E-2],"split_indices":[11,33,29,23,11,31,0,0,0,0,0,0,0],"split_type":[0,0,0,0,0,0,0,0,0,0,0,0,0],"sum_hessian":[6.340407E2,4.070772E2,2.269635E2,1.16781006E2,2.902962E2,1.9119345E2,3.5770046E1,1.1345985E2,3.3211625E0,6.0756535E1,2.2953966E2,3.1767584E1,1.5942587E2],"tree_param":{"num_deleted":"0","num_feature":"34","num_nodes":"13","size_leaf_vector":"1"}},{"base_weights":[-1.519826E-2,-3.1186065E-1,5.440726E-1,-3.6647603E-2,-7.56647E-1,8.452251E-1,-7.96353E-2,-6.068339E-2,8.37195E-2,9.1763355E-2,-9.803503E-2,-1.4655079E-2,8.537567E-2],"categories":[],"categories_nodes":[],"categories_segments":[],"categories_sizes":[],"default_left":[0,0,0,0,0,0,0,0,0,0,0,0,0],"id":45,"left_children":[1,3,5,7,9,11,-1,-1,-1,-1,-1,-1,-1],"loss_changes":[1.0089537E2,4.8607815E1,9.856501E1,1.9353171E2,1.3689328E2,4.056299E1,0E0,0E0,0E0,0E0,0E0,0E0,0E0],"parents":[2147483647,0,0,1,1,2,2,3,3,4,4,5,5],"right_children":[2,4,6,8,10,12,-1,-1,-1,-1,-1,-1,-1],"split_conditions":[3E0,1E0,1E0,2E0,2E0,4.9254122E-1,-7.96353E-2,-6.068339E-2,8.37195E-2,9.1763355E-2,-9.803503E-2,-1.4655079E-2,8.537567E-2],"split_indices":[11,7,29,11,0,31,0,0,0,0,0,0,0],"split_type":[0,0,0,0,0,0,0,0,0,0,0,0,0],"sum_hessian":[6.060935E2,3.9631345E2,2.0978006E2,2.4549498E2,1.5081845E2,1.7583502E2,3.3945045E1,1.474931E2,9.8001884E1,2.9515139E1,1.21303314E2,3.1245602E1,1.4458942E2],"tree_param":{"num_deleted":"0","num_feature":"34","num_nodes":"13","size_leaf_vector":"1"}},{"base_weights":[-9.85694E-3,-1.5750685E-1,8.268929E-2,3.913696E-2,-7.4415094E-1,-7.9729445E-2,2.027796E-2,-1.02124356E-1,-6.4931503E-3],"categories":[],"categories_nodes":[],"categories_segments":[],"categories_sizes":[],"default_left":[0,0,0,0,0,0,0,0,0],"id":46,"left_children":[1,3,-1,5,7,-1,-1,-1,-1],"loss_changes":[8.8782814E1,5.825878E1,0E0,8.4389786E1,4.46435E1,0E0,0E0,0E0,0E0],"parents":[2147483647,0,0,1,1,3,3,4,4],"right_children":[2,4,-1,6,8,-1,-1,-1,-1],"split_conditions":[1E0,1E0,8.268929E-2,1E0,1E0,-7.9729445E-2,2.027796E-2,-1.02124356E-1,-6.4931503E-3],"split_indices":[24,21,0,11,8,0,0,0,0],"split_type":[0,0,0,0,0,0,0,0,0],"sum_hessian":[5.74198E2,5.0376505E2,7.043296E1,3.779942E2,1.25770836E2,6.41841E1,3.1381012E2,6.924167E1,5.6529167E1],"tree_param":{"num_deleted":"0","num_feature":"34","num_nodes":"9","size_leaf_vector":"1"}},{"base_weights":[-1.5691554E-2,-3.0387163E-1,5.3542036E-1,-2.4796495E-2,-7.380787E-1,8.729979E-2,-2.9585403E-1,-5.9058703E-2,8.325054E-2,8.775722E-2,-9.6329495E-2,7.9946354E-2,-9.336127E-2],"categories":[],"categories_nodes":[],"categories_segments":[],"categories_sizes":[],"default_left":[0,0,0,0,0,0,0,0,0,0,0,0,0],"id":47,"left_children":[1,3,5,7,9,-1,11,-1,-1,-1,-1,-1,-1],"loss_changes":[8.946893E1,4.4801765E1,8.969999E1,1.7270206E2,1.2505216E2,0E0,8.951281E1,0E0,0E0,0E0,0E0,0E0,0E0],"parents":[2147483647,0,0,1,1,2,2,3,3,4,4,6,6],"right_children":[2,4,6,8,10,-1,12,-1,-1,-1,-1,-1,-1],"split_conditions":[3E0,1E0,1E0,2E0,2E0,8.729979E-2,1E0,-5.9058703E-2,8.325054E-2,8.775722E-2,-9.6329495E-2,7.9946354E-2,-9.336127E-2],"split_indices":[11,7,27,11,0,0,7,0,0,0,0,0,0],"split_type":[0,0,0,0,0,0,0,0,0,0,0,0,0],"sum_hessian":[5.6131287E2,3.6887457E2,1.9243834E2,2.251941E2,1.4368045E2,1.1513873E2,7.72996E1,1.35061E2,9.013311E1,2.8825504E1,1.1485494E2,3.1025661E1,4.627394E1],"tree_param":{"num_deleted":"0","num_feature":"34","num_nodes":"13","size_leaf_vector":"1"}},{"base_weights":[-1.0201808E-2,-2.8108737E-1,5.164924E-1,-1.1108381E-1,-9.007914E-1,8.6645275E-2,-3.0229232E-1,6.8903916E-2,-2.8885093E-2,-9.5128715E-2,-4.627653E-2,7.960399E-2,-9.2595756E-2],"categories":[],"categories_nodes":[],"categories_segments":[],"categories_sizes":[],"default_left":[0,0,0,0,0,0,0,0,0,0,0,0,0],"id":48,"left_children":[1,3,5,7,9,-1,11,-1,-1,-1,-1,-1,-1],"loss_changes":[7.543935E1,3.6683167E1,8.3639435E1,6.718727E1,6.284256E0,0E0,8.350358E1,0E0,0E0,0E0,0E0,0E0,0E0],"parents":[2147483647,0,0,1,1,2,2,3,3,4,4,6,6],"right_children":[2,4,6,8,10,-1,12,-1,-1,-1,-1,-1,-1],"split_conditions":[3E0,1E0,1E0,3E0,1E0,8.6645275E-2,1E0,6.8903916E-2,-2.8885093E-2,-9.5128715E-2,-4.627653E-2,7.960399E-2,-9.2595756E-2],"split_indices":[11,21,27,0,8,0,7,0,0,0,0,0,0],"split_type":[0,0,0,0,0,0,0,0,0,0,0,0,0],"sum_hessian":[5.267362E2,3.481464E2,1.7858981E2,2.7412488E2,7.40215E1,1.0536072E2,7.32291E1,5.555993E1,2.1856496E2,3.7653057E1,3.636844E1,2.902783E1,4.4201275E1],"tree_param":{"num_deleted":"0","num_feature":"34","num_nodes":"13","size_leaf_vector":"1"}},{"base_weights":[-5.1053716E-3,-2.5693652E-1,5.187428E-1,1.682209E-2,-6.83087E-1,8.587814E-2,-2.976466E-1,-5.506131E-2,8.300325E-2,-9.435245E-2,7.930934E-2,7.923101E-2,-9.193263E-2],"categories":[],"categories_nodes":[],"categories_segments":[],"categories_sizes":[],"default_left":[0,0,0,0,0,0,0,0,0,0,0,0,0],"id":49,"left_children":[1,3,5,7,9,-1,11,-1,-1,-1,-1,-1,-1],"loss_changes":[6.813801E1,4.070374E1,7.6263306E1,1.5426172E2,1.1457031E2,0E0,7.640764E1,0E0,0E0,0E0,0E0,0E0,0E0],"parents":[2147483647,0,0,1,1,2,2,3,3,4,4,6,6],"right_children":[2,4,6,8,10,-1,12,-1,-1,-1,-1,-1,-1],"split_conditions":[3E0,1E0,1E0,2E0,1E0,8.587814E-2,1E0,-5.506131E-2,8.300325E-2,-9.435245E-2,7.930934E-2,7.923101E-2,-9.193263E-2],"split_indices":[11,7,27,11,3,0,7,0,0,0,0,0,0],"split_type":[0,0,0,0,0,0,0,0,0,0,0,0,0],"sum_hessian":[5.144947E2,3.4780356E2,1.6669115E2,2.123504E2,1.3545314E2,9.906315E1,6.7628006E1,1.2578606E2,8.6564354E1,1.0471162E2,3.074153E1,2.6850155E1,4.077785E1],"tree_param":{"num_deleted":"0","num_feature":"34","num_nodes":"13","size_leaf_vector":"1"}},{"base_weights":[-4.0850295E-3,-7.9564095E-2,1.3000773E-1,3.756859E-1,-5.5886114E-1,2.9111037E-1,1.4477294E-2,-9.553743E-2,6.4398036E-3],"categories":[],"categories_nodes":[],"categories_segments":[],"categories_sizes":[],"default_left":[0,0,0,0,0,0,0,0,0],"id":50,"left_children":[1,-1,3,5,7,-1,-1,-1,-1],"loss_changes":[6.437422E1,0E0,7.24628E1,1.9968002E2,4.5850475E1,0E0,0E0,0E0,0E0],"parents":[2147483647,0,0,2,2,3,3,4,4],"right_children":[2,-1,4,6,8,-1,-1,-1,-1],"split_conditions":[1E0,-7.9564095E-2,1E0,2E0,1E0,2.9111037E-1,1.4477294E-2,-9.553743E-2,6.4398036E-3],"split_indices":[11,0,21,0,8,0,0,0,0],"split_type":[0,0,0,0,0,0,0,0,0],"sum_hessian":[4.8271976E2,5.6794502E1,4.2592523E2,3.142911E2,1.1163414E2,1.670213E1,2.9758896E2,5.555702E1,5.607712E1],"tree_param":{"num_deleted":"0","num_feature":"34","num_nodes":"9","size_leaf_vector":"1"}},{"base_weights":[-2.7659596E-3,-1.2690316E-1,8.106505E-2,-6.113919E-1,8.769344E-2,-5.3677797E-2,7.028842E-2,2.3552522E-2,-6.0457848E-2],"categories":[],"categories_nodes":[],"categories_segments":[],"categories_sizes":[],"default_left":[0,0,0,0,0,0,0,0,0],"id":51,"left_children":[1,3,-1,5,7,-1,-1,-1,-1],"loss_changes":[6.024518E1,4.4304237E1,0E0,1.2198978E1,5.180022E1,0E0,0E0,0E0,0E0],"parents":[2147483647,0,0,1,1,3,3,4,4],"right_children":[2,4,-1,6,8,-1,-1,-1,-1],"split_conditions":[1E0,4.4020727E-2,8.106505E-2,1E0,1E0,-5.3677797E-2,7.028842E-2,2.3552522E-2,-6.0457848E-2],"split_indices":[24,33,0,23,27,0,0,0,0],"split_type":[0,0,0,0,0,0,0,0,0],"sum_hessian":[4.7561182E2,4.2461102E2,5.1000797E1,1.2977426E2,2.9483676E2,1.2531306E2,4.4612136E0,2.3732233E2,5.751443E1],"tree_param":{"num_deleted":"0","num_feature":"34","num_nodes":"9","size_leaf_vector":"1"}},{"base_weights":[-1.4509076E-2,-2.7099976E-1,5.342801E-1,2.1991143E-2,-7.0379645E-1,8.506456E-2,-2.3701327E-1,-5.469925E-2,8.259196E-2,6.2278718E-2,-9.217558E-2,7.893403E-2,-8.88381E-2],"categories":[],"categories_nodes":[],"categories_segments":[],"categories_sizes":[],"default_left":[0,0,0,0,0,0,0,0,0,0,0,0,0],"id":52,"left_children":[1,3,5,7,9,-1,11,-1,-1,-1,-1,-1,-1],"loss_changes":[6.577195E1,4.0390163E1,6.0983192E1,1.3678598E2,8.634702E1,0E0,6.66925E1,0E0,0E0,0E0,0E0,0E0,0E0],"parents":[2147483647,0,0,1,1,2,2,3,3,4,4,6,6],"right_children":[2,4,6,8,10,-1,12,-1,-1,-1,-1,-1,-1],"split_conditions":[3E0,1E0,1E0,2E0,2E0,8.506456E-2,1E0,-5.469925E-2,8.259196E-2,6.2278718E-2,-9.217558E-2,7.893403E-2,-8.88381E-2],"split_indices":[11,7,27,11,0,0,7,0,0,0,0,0,0],"split_type":[0,0,0,0,0,0,0,0,0,0,0,0,0],"sum_hessian":[4.6523672E2,3.1739856E2,1.4783817E2,1.8983496E2,1.2756361E2,8.746659E1,6.0371574E1,1.119591E2,7.787586E1,2.9455557E1,9.8108055E1,2.5090757E1,3.5280815E1],"tree_param":{"num_deleted":"0","num_feature":"34","num_nodes":"13","size_leaf_vector":"1"}},{"base_weights":[-1.4830017E-2,-2.63214E-1,5.232597E-1,3.1649753E-2,-6.8814325E-1,7.8231347E-1,-7.737193E-2,-5.1696394E-2,8.221267E-2,-9.15897E-2,5.2730203E-2,-1.1683168E-2,8.249543E-2],"categories":[],"categories_nodes":[],"categories_segments":[],"categories_sizes":[],"default_left":[0,0,0,0,0,0,0,0,0,0,0,0,0],"id":53,"left_children":[1,3,5,7,9,11,-1,-1,-1,-1,-1,-1,-1],"loss_changes":[5.9038353E1,3.7884117E1,5.4623177E1,1.217516E2,7.695372E1,2.773999E1,0E0,0E0,0E0,0E0,0E0,0E0,0E0],"parents":[2147483647,0,0,1,1,2,2,3,3,4,4,5,5],"right_children":[2,4,6,8,10,12,-1,-1,-1,-1,-1,-1,-1],"split_conditions":[3E0,1E0,1E0,2E0,1E0,4.9254122E-1,-7.737193E-2,-5.1696394E-2,8.221267E-2,-9.15897E-2,5.2730203E-2,-1.1683168E-2,8.249543E-2],"split_indices":[11,7,29,11,3,31,0,0,0,0,0,0,0],"split_type":[0,0,0,0,0,0,0,0,0,0,0,0,0],"sum_hessian":[4.3969858E2,3.0118256E2,1.38516E2,1.7834927E2,1.2283328E2,1.18409836E2,2.010617E1,1.0633319E2,7.201609E1,9.1847115E1,3.0986162E1,2.5120451E1,9.328939E1],"tree_param":{"num_deleted":"0","num_feature":"34","num_nodes":"13","size_leaf_vector":"1"}},{"base_weights":[-3.423735E-3,-7.937997E-2,1.368608E-1,3.7597597E-1,-5.3872323E-1,2.6633576E-1,1.3220393E-2,-1.0504226E-2,-9.470444E-2],"categories":[],"categories_nodes":[],"categories_segments":[],"categories_sizes":[],"default_left":[0,0,0,0,0,0,0,0,0],"id":54,"left_children":[1,-1,3,5,7,-1,-1,-1,-1],"loss_changes":[5.7694496E1,0E0,5.904628E1,1.6724069E2,2.4979109E1,0E0,0E0,0E0,0E0],"parents":[2147483647,0,0,2,2,3,3,4,4],"right_children":[2,-1,4,6,8,-1,-1,-1,-1],"split_conditions":[1E0,-7.937997E-2,1E0,2E0,1E0,2.6633576E-1,1.3220393E-2,-1.0504226E-2,-9.470444E-2],"split_indices":[11,0,21,0,7,0,0,0,0],"split_type":[0,0,0,0,0,0,0,0,0],"sum_hessian":[4.1393616E2,5.0674297E1,3.6326184E2,2.686277E2,9.463418E1,1.6905186E1,2.5172249E2,5.873925E1,3.5894928E1],"tree_param":{"num_deleted":"0","num_feature":"34","num_nodes":"9","size_leaf_vector":"1"}},{"base_weights":[-6.922927E-3,-2.5012693E-1,5.3109014E-1,3.442571E-2,-6.5887094E-1,8.418444E-2,-2.266417E-1,-4.9986973E-2,8.1857316E-2,-8.9723594E-2,4.7352113E-2,7.818037E-2,-8.721212E-2],"categories":[],"categories_nodes":[],"categories_segments":[],"categories_sizes":[],"default_left":[0,0,0,0,0,0,0,0,0,0,0,0,0],"id":55,"left_children":[1,3,5,7,9,-1,11,-1,-1,-1,-1,-1,-1],"loss_changes":[5.3546894E1,3.28002E1,5.055571E1,1.0956606E2,6.762846E1,0E0,5.5897224E1,0E0,0E0,0E0,0E0,0E0,0E0],"parents":[2147483647,0,0,1,1,2,2,3,3,4,4,6,6],"right_children":[2,4,6,8,10,-1,12,-1,-1,-1,-1,-1,-1],"split_conditions":[3E0,1E0,1E0,2E0,1E0,8.418444E-2,1E0,-4.9986973E-2,8.1857316E-2,-8.9723594E-2,4.7352113E-2,7.818037E-2,-8.721212E-2],"split_indices":[11,7,27,11,3,0,7,0,0,0,0,0,0],"split_type":[0,0,0,0,0,0,0,0,0,0,0,0,0],"sum_hessian":[4.072179E2,2.8081366E2,1.2640422E2,1.6609805E2,1.14715614E2,7.465979E1,5.1744434E1,9.98755E1,6.622256E1,8.38149E1,3.0900711E1,2.1557487E1,3.0186949E1],"tree_param":{"num_deleted":"0","num_feature":"34","num_nodes":"13","size_leaf_vector":"1"}},{"base_weights":[-4.573753E-3,-7.9165675E-2,1.3044506E-1,3.584702E-1,-5.0799E-1,1.846735E-1,6.5599275E-3,-9.19553E-3,-9.199021E-2],"categories":[],"categories_nodes":[],"categories_segments":[],"categories_sizes":[],"default_left":[0,0,0,0,0,0,0,0,0],"id":56,"left_children":[1,-1,3,5,7,-1,-1,-1,-1],"loss_changes":[5.1296787E1,0E0,4.9568733E1,1.3488365E2,2.2496254E1,0E0,0E0,0E0,0E0],"parents":[2147483647,0,0,2,2,3,3,4,4],"right_children":[2,-1,4,6,8,-1,-1,-1,-1],"split_conditions":[1E0,-7.9165675E-2,1E0,3E0,1E0,1.846735E-1,6.5599275E-3,-9.19553E-3,-9.199021E-2],"split_indices":[11,0,21,0,7,0,0,0,0],"split_type":[0,0,0,0,0,0,0,0,0],"sum_hessian":[3.8373938E2,4.54971E1,3.3824228E2,2.4955063E2,8.869165E1,3.0075909E1,2.1947473E2,5.5739723E1,3.2951923E1],"tree_param":{"num_deleted":"0","num_feature":"34","num_nodes":"9","size_leaf_vector":"1"}},{"base_weights":[-1.40826125E-2,-2.598581E-1,5.457537E-1,-7.897828E-2,-1.1689572E-1,8.0150837E-1,-7.6420315E-2,7.564325E-2,-2.604519E-2,2.5061008E-3,8.3073065E-2],"categories":[],"categories_nodes":[],"categories_segments":[],"categories_sizes":[],"default_left":[0,0,0,0,0,0,0,0,0,0,0],"id":57,"left_children":[1,3,5,-1,7,9,-1,-1,-1,-1,-1],"loss_changes":[5.2591843E1,2.7501055E1,4.55337E1,0E0,4.9765762E1,1.8246918E1,0E0,0E0,0E0,0E0,0E0],"parents":[2147483647,0,0,1,1,2,2,4,4,5,5],"right_children":[2,4,6,-1,8,10,-1,-1,-1,-1,-1],"split_conditions":[3E0,1E0,1E0,-7.897828E-2,2E0,4E0,-7.6420315E-2,7.564325E-2,-2.604519E-2,2.5061008E-3,8.3073065E-2],"split_indices":[11,11,29,0,0,0,0,0,0,0,0],"split_type":[0,0,0,0,0,0,0,0,0,0,0],"sum_hessian":[3.80194E2,2.6457706E2,1.1561697E2,4.248984E1,2.220872E2,9.918328E1,1.6433683E1,3.5878906E1,1.862083E2,2.3598005E1,7.558527E1],"tree_param":{"num_deleted":"0","num_feature":"34","num_nodes":"11","size_leaf_vector":"1"}},{"base_weights":[-1.1367656E-2,-2.3857112E-1,5.195602E-1,7.308425E-2,-6.765292E-1,7.437962E-1,-2.9414892E-1,-4.8504137E-2,8.160138E-2,3.7784733E-2,-8.8680424E-2,-1.5438567E-2,8.114359E-2,-7.608999E-2,7.343239E-2],"categories":[],"categories_nodes":[],"categories_segments":[],"categories_sizes":[],"default_left":[0,0,0,0,0,0,0,0,0,0,0,0,0,0,0],"id":58,"left_children":[1,3,5,7,9,11,13,-1,-1,-1,-1,-1,-1,-1,-1],"loss_changes":[4.4757416E1,3.551081E1,2.0508965E1,9.885064E1,5.4176796E1,2.2358173E1,2.0573612E1,0E0,0E0,0E0,0E0,0E0,0E0,0E0,0E0],"parents":[2147483647,0,0,1,1,2,2,3,3,4,4,5,5,6,6],"right_children":[2,4,6,8,10,12,14,-1,-1,-1,-1,-1,-1,-1,-1],"split_conditions":[3E0,1E0,1E0,2E0,2E0,4.9254122E-1,1E0,-4.8504137E-2,8.160138E-2,3.7784733E-2,-8.8680424E-2,-1.5438567E-2,8.114359E-2,-7.608999E-2,7.343239E-2],"split_indices":[11,7,28,11,0,31,24,0,0,0,0,0,0,0,0],"split_type":[0,0,0,0,0,0,0,0,0,0,0,0,0,0,0],"sum_hessian":[3.690071E2,2.5880545E2,1.1020167E2,1.5169261E2,1.0711285E2,8.6461235E1,2.3740433E1,8.853329E1,6.3159317E1,2.9244328E1,7.786852E1,1.9436436E1,6.7024796E1,1.5535125E1,8.205308E0],"tree_param":{"num_deleted":"0","num_feature":"34","num_nodes":"15","size_leaf_vector":"1"}},{"base_weights":[-4.776352E-3,-7.872307E-2,1.1731981E-1,-4.3913114E-1,3.8760206E-1,-7.232559E-2,1.3300477E-2,1.5619792E-1,1.2600398E-2],"categories":[],"categories_nodes":[],"categories_segments":[],"categories_sizes":[],"default_left":[0,0,0,0,0,0,0,0,0],"id":59,"left_children":[1,-1,3,5,7,-1,-1,-1,-1],"loss_changes":[4.2004276E1,0E0,4.7154842E1,2.9029264E1,7.559541E1,0E0,0E0,0E0,0E0],"parents":[2147483647,0,0,2,2,3,3,4,4],"right_children":[2,-1,4,6,8,-1,-1,-1,-1],"split_conditions":[1E0,-7.872307E-2,4.4020727E-2,1E0,3E0,-7.232559E-2,1.3300477E-2,1.5619792E-1,1.2600398E-2],"split_indices":[11,0,33,8,0,0,0,0,0],"split_type":[0,0,0,0,0,0,0,0,0],"sum_hessian":[3.4934607E2,3.794575E1,3.114003E2,1.0160126E2,2.0979906E2,5.718764E1,4.4413616E1,2.5934582E1,1.8386447E2],"tree_param":{"num_deleted":"0","num_feature":"34","num_nodes":"9","size_leaf_vector":"1"}},{"base_weights":[-3.9757104E-3,-2.2310321E-1,5.2119654E-1,9.1095746E-2,-6.489139E-1,8.299281E-2,-2.2942273E-1,-4.281815E-2,8.119724E-2,3.7110765E-2,-8.7866835E-2,7.68581E-2,-8.4716156E-2],"categories":[],"categories_nodes":[],"categories_segments":[],"categories_sizes":[],"default_left":[0,0,0,0,0,0,0,0,0,0,0,0,0],"id":60,"left_children":[1,3,5,7,9,-1,11,-1,-1,-1,-1,-1,-1],"loss_changes":[3.9597206E1,3.2539284E1,3.949109E1,8.188297E1,5.2121807E1,0E0,4.2579597E1,0E0,0E0,0E0,0E0,0E0,0E0],"parents":[2147483647,0,0,1,1,2,2,3,3,4,4,6,6],"right_children":[2,4,6,8,10,-1,12,-1,-1,-1,-1,-1,-1],"split_conditions":[3E0,1E0,1E0,2E0,2E0,8.299281E-2,1E0,-4.281815E-2,8.119724E-2,3.7110765E-2,-8.7866835E-2,7.68581E-2,-8.4716156E-2],"split_indices":[11,7,27,11,0,0,7,0,0,0,0,0,0],"split_type":[0,0,0,0,0,0,0,0,0,0,0,0,0],"sum_hessian":[3.4207468E2,2.4177113E2,1.00303535E2,1.395704E2,1.0220073E2,5.9205112E1,4.1098423E1,8.3430626E1,5.6139782E1,2.9391987E1,7.280874E1,1.6815128E1,2.4283297E1],"tree_param":{"num_deleted":"0","num_feature":"34","num_nodes":"13","size_leaf_vector":"1"}},{"base_weights":[4.896425E-3,-7.850534E-2,1.2622495E-1,3.6402956E-1,-5.3396785E-1,1.7277585E-1,5.810898E-3,-8.682927E-2,-3.416557E-4],"categories":[],"categories_nodes":[],"categories_segments":[],"categories_sizes":[],"default_left":[0,0,0,0,0,0,0,0,0],"id":61,"left_children":[1,-1,3,5,7,-1,-1,-1,-1],"loss_changes":[3.9045647E1,0E0,4.5807224E1,1.1191716E2,2.2585367E1,0E0,0E0,0E0,0E0],"parents":[2147483647,0,0,2,2,3,3,4,4],"right_children":[2,-1,4,6,8,-1,-1,-1,-1],"split_conditions":[1E0,-7.850534E-2,1E0,3E0,1E0,1.7277585E-1,5.810898E-3,-8.682927E-2,-3.416557E-4],"split_indices":[11,0,21,0,8,0,0,0,0],"split_type":[0,0,0,0,0,0,0,0,0],"sum_hessian":[3.2428116E2,3.4747738E1,2.8953342E2,2.1318999E2,7.6343445E1,2.8870167E1,1.8431981E2,3.6891514E1,3.9451935E1],"tree_param":{"num_deleted":"0","num_feature":"34","num_nodes":"9","size_leaf_vector":"1"}},{"base_weights":[-1.3864843E-2,-2.3175137E-1,5.1951337E-1,7.476258E-2,-6.370945E-1,8.24462E-2,-2.1861894E-1,-4.385834E-2,8.0839835E-2,-8.69025E-2,3.321578E-2,7.643362E-2,-8.3571896E-2],"categories":[],"categories_nodes":[],"categories_segments":[],"categories_sizes":[],"default_left":[0,0,0,0,0,0,0,0,0,0,0,0,0],"id":62,"left_children":[1,3,5,7,9,-1,11,-1,-1,-1,-1,-1,-1],"loss_changes":[3.7443485E1,2.8462288E1,3.547821E1,7.699196E1,4.7047474E1,0E0,3.8875465E1,0E0,0E0,0E0,0E0,0E0,0E0],"parents":[2147483647,0,0,1,1,2,2,3,3,4,4,6,6],"right_children":[2,4,6,8,10,-1,12,-1,-1,-1,-1,-1,-1],"split_conditions":[3E0,1E0,1E0,2E0,1E0,8.24462E-2,1E0,-4.385834E-2,8.0839835E-2,-8.69025E-2,3.321578E-2,7.643362E-2,-8.3571896E-2],"split_indices":[11,7,27,11,4,0,7,0,0,0,0,0,0],"split_type":[0,0,0,0,0,0,0,0,0,0,0,0,0],"sum_hessian":[3.2015295E2,2.2770168E2,9.245128E1,1.3012146E2,9.75802E1,5.4394028E1,3.805725E1,7.8363144E1,5.1758324E1,6.836518E1,2.9215023E1,1.5652976E1,2.2404276E1],"tree_param":{"num_deleted":"0","num_feature":"34","num_nodes":"13","size_leaf_vector":"1"}},{"base_weights":[5.4362544E-4,-5.4174584E-1,1.8941322E-1,-8.66455E-1,-7.115506E-2,1.3260456E0,-8.040105E-2,-7.392389E-2,4.7385614E-2,6.3394927E-3,-5.4655746E-2,1.6669057E-1,-3.919399E-2,4.8934137E-3,-7.849865E-2],"categories":[],"categories_nodes":[],"categories_segments":[],"categories_sizes":[],"default_left":[0,0,0,0,0,0,0,0,0,0,0,0,0,0,0],"id":63,"left_children":[1,3,5,7,9,11,13,-1,-1,-1,-1,-1,-1,-1,-1],"loss_changes":[3.0999594E1,1.1885172E1,6.895012E1,4.426594E0,3.0927732E0,6.0345695E1,2.3316132E1,0E0,0E0,0E0,0E0,0E0,0E0,0E0,0E0],"parents":[2147483647,0,0,1,1,2,2,3,3,4,4,5,5,6,6],"right_children":[2,4,6,8,10,12,14,-1,-1,-1,-1,-1,-1,-1,-1],"split_conditions":[1.26E2,4E0,2.37E2,1E0,8.802353E-2,1E0,1.139E3,-7.392389E-2,4.7385614E-2,6.3394927E-3,-5.4655746E-2,1.6669057E-1,-3.919399E-2,4.8934137E-3,-7.849865E-2],"split_indices":[30,0,30,26,33,21,30,0,0,0,0,0,0,0,0],"split_type":[0,0,0,0,0,0,0,0,0,0,0,0,0,0,0],"sum_hessian":[3.0066354E2,7.718338E1,2.2348016E2,4.5172794E1,3.2010586E1,4.2121685E1,1.8135849E2,4.380971E1,1.3630854E0,2.6394995E1,5.615589E0,2.961818E1,1.2503506E1,1.5753365E2,2.3824833E1],"tree_param":{"num_deleted":"0","num_feature":"34","num_nodes":"15","size_leaf_vector":"1"}},{"base_weights":[-5.491082E-3,-7.8141175E-2,1.1073297E-1,3.4755456E-1,-4.6192893E-1,5.547509E-2,-5.9392497E-2,2.7830806E-3,-8.979343E-2],"categories":[],"categories_nodes":[],"categories_segments":[],"categories_sizes":[],"default_left":[0,0,0,0,0,0,0,0,0],"id":64,"left_children":[1,-1,3,5,7,-1,-1,-1,-1],"loss_changes":[3.3565456E1,0E0,3.6181664E1,7.1568436E1,2.5673195E1,0E0,0E0,0E0,0E0],"parents":[2147483647,0,0,2,2,3,3,4,4],"right_children":[2,-1,4,6,8,-1,-1,-1,-1],"split_conditions":[1E0,-7.8141175E-2,1E0,1E0,1E0,5.547509E-2,-5.9392497E-2,2.7830806E-3,-8.979343E-2],"split_indices":[11,0,27,21,7,0,0,0,0],"split_type":[0,0,0,0,0,0,0,0,0],"sum_hessian":[2.9538293E2,3.0777134E1,2.646058E2,1.8747112E2,7.713469E1,1.4258691E2,4.4884205E1,4.4566216E1,3.2568474E1],"tree_param":{"num_deleted":"0","num_feature":"34","num_nodes":"9","size_leaf_vector":"1"}},{"base_weights":[2.9306787E-3,-2.073292E-1,5.419982E-1,-3.8948256E-1,5.049497E-1,7.785814E-1,-7.393481E-2,-5.411402E-2,1.9373212E-2,1.349563E-1,-4.1842993E-2,-3.0738567E-3,8.077638E-2],"categories":[],"categories_nodes":[],"categories_segments":[],"categories_sizes":[],"default_left":[0,0,0,0,0,0,0,0,0,0,0,0,0],"id":65,"left_children":[1,3,5,7,9,11,-1,-1,-1,-1,-1,-1,-1],"loss_changes":[3.3227715E1,2.7560722E1,2.9252712E1,3.0707632E1,5.360173E1,1.3515835E1,0E0,0E0,0E0,0E0,0E0,0E0,0E0],"parents":[2147483647,0,0,1,1,2,2,3,3,4,4,5,5],"right_children":[2,4,6,8,10,12,-1,-1,-1,-1,-1,-1,-1],"split_conditions":[3E0,1E0,1E0,1E0,1E0,4.9254122E-1,-7.393481E-2,-5.411402E-2,1.9373212E-2,1.349563E-1,-4.1842993E-2,-3.0738567E-3,8.077638E-2],"split_indices":[11,8,29,9,21,31,0,0,0,0,0,0,0],"split_type":[0,0,0,0,0,0,0,0,0,0,0,0,0],"sum_hessian":[2.91166E2,2.0990808E2,8.125792E1,1.6752068E2,4.2387405E1,7.037172E1,1.0886198E1,1.15143005E2,5.2377663E1,1.9418512E1,2.2968895E1,1.5701561E1,5.467016E1],"tree_param":{"num_deleted":"0","num_feature":"34","num_nodes":"13","size_leaf_vector":"1"}},{"base_weights":[-5.279419E-3,-7.788048E-2,1.0975627E-1,3.336449E-1,-4.6573007E-1,5.2751478E-2,-5.6357093E-2,-8.509072E-2,7.7518634E-2],"categories":[],"categories_nodes":[],"categories_segments":[],"categories_sizes":[],"default_left":[0,0,0,0,0,0,0,0,0],"id":66,"left_children":[1,-1,3,5,7,-1,-1,-1,-1],"loss_changes":[3.1132166E1,0E0,3.23499E1,6.1492477E1,6.1422062E1,0E0,0E0,0E0,0E0],"parents":[2147483647,0,0,2,2,3,3,4,4],"right_children":[2,-1,4,6,8,-1,-1,-1,-1],"split_conditions":[1E0,-7.788048E-2,1E0,1E0,1E0,5.2751478E-2,-5.6357093E-2,-8.509072E-2,7.7518634E-2],"split_indices":[11,0,27,22,8,0,0,0,0],"split_type":[0,0,0,0,0,0,0,0,0],"sum_hessian":[2.7755225E2,2.8681826E1,2.488704E2,1.7946942E2,6.9400986E1,1.3688197E2,4.258745E1,4.916892E1,2.0232069E1],"tree_param":{"num_deleted":"0","num_feature":"34","num_nodes":"9","size_leaf_vector":"1"}},{"base_weights":[-2.1682594E-2,-2.3416933E-1,5.5023205E-1,8.078987E-2,-6.31924E-1,8.135536E-2,-1.6345517E-1,-3.9937604E-2,8.025232E-2,3.2903653E-2,-8.443449E-2,7.500184E-2,-8.067029E-2],"categories":[],"categories_nodes":[],"categories_segments":[],"categories_sizes":[],"default_left":[0,0,0,0,0,0,0,0,0,0,0,0,0],"id":67,"left_children":[1,3,5,7,9,-1,11,-1,-1,-1,-1,-1,-1],"loss_changes":[3.265687E1,2.45877E1,2.4417107E1,5.9451935E1,3.8724487E1,0E0,2.8525383E1,0E0,0E0,0E0,0E0,0E0,0E0],"parents":[2147483647,0,0,1,1,2,2,3,3,4,4,6,6],"right_children":[2,4,6,8,10,-1,12,-1,-1,-1,-1,-1,-1],"split_conditions":[3E0,1E0,1E0,2E0,2E0,8.135536E-2,1E0,-3.9937604E-2,8.025232E-2,3.2903653E-2,-8.443449E-2,7.500184E-2,-8.067029E-2],"split_indices":[11,7,27,11,0,0,7,0,0,0,0,0,0],"split_type":[0,0,0,0,0,0,0,0,0,0,0,0,0],"sum_hessian":[2.6666687E2,1.9485997E2,7.180689E1,1.09193085E2,8.566689E1,4.31587E1,2.8648195E1,6.7319405E1,4.1873676E1,2.4744045E1,6.0922844E1,1.2391651E1,1.6256546E1],"tree_param":{"num_deleted":"0","num_feature":"34","num_nodes":"13","size_leaf_vector":"1"}},{"base_weights":[-1.2343182E-2,-1.817141E-1,6.436319E-1,6.705307E-2,-8.411027E-2,7.585978E-2,1.725447E0,-1.9259555E-2,8.0799066E-2,-6.876889E-2,7.801376E-2,2.4552624E-1,3.0661289E-2],"categories":[],"categories_nodes":[],"categories_segments":[],"categories_sizes":[],"default_left":[0,0,0,0,0,0,0,0,0,0,0,0,0],"id":68,"left_children":[1,3,5,7,-1,9,11,-1,-1,-1,-1,-1,-1],"loss_changes":[2.8154108E1,4.3630623E1,3.1812435E1,4.5955486E1,0E0,3.041095E1,3.1021488E1,0E0,0E0,0E0,0E0,0E0,0E0],"parents":[2147483647,0,0,1,1,2,2,3,3,5,5,6,6],"right_children":[2,4,6,8,-1,10,12,-1,-1,-1,-1,-1,-1],"split_conditions":[1E0,1E0,4.4020727E-2,3E0,-8.411027E-2,2E0,1E0,-1.9259555E-2,8.0799066E-2,-6.876889E-2,7.801376E-2,2.4552624E-1,3.0661289E-2],"split_indices":[8,27,33,11,0,11,12,0,0,0,0,0,0],"split_type":[0,0,0,0,0,0,0,0,0,0,0,0,0],"sum_hessian":[2.5135255E2,2.0034662E2,5.1005947E1,1.5650214E2,4.3844482E1,3.4151985E1,1.685396E1,1.1854936E2,3.7952774E1,1.676111E1,1.7390875E1,7.7794604E0,9.0745E0],"tree_param":{"num_deleted":"0","num_feature":"34","num_nodes":"13","size_leaf_vector":"1"}},{"base_weights":[-2.879075E-3,-7.755334E-2,1.1371661E-1,2.3217417E-1,-7.7893235E-2,4.14549E-2,-3.7763666E-2],"categories":[],"categories_nodes":[],"categories_segments":[],"categories_sizes":[],"default_left":[0,0,0,0,0,0,0],"id":69,"left_children":[1,-1,3,5,-1,-1,-1],"loss_changes":[2.8028316E1,0E0,2.88165E1,4.0721745E1,0E0,0E0,0E0],"parents":[2147483647,0,0,2,2,3,3],"right_children":[2,-1,4,6,-1,-1,-1],"split_conditions":[1E0,-7.755334E-2,1.139E3,1E0,-7.7893235E-2,4.14549E-2,-3.7763666E-2],"split_indices":[11,0,30,27,0,0,0],"split_type":[0,0,0,0,0,0,0],"sum_hessian":[2.4673323E2,2.5772642E1,2.2096059E2,1.999634E2,2.099719E1,1.4239516E2,5.756824E1],"tree_param":{"num_deleted":"0","num_feature":"34","num_nodes":"7","size_leaf_vector":"1"}},{"base_weights":[-1.1953702E-3,-7.73157E-2,1.1001667E-1,3.1871024E-1,-4.86808E-1,1.3209534E-1,1.7209582E-3,-8.241916E-2,-2.3724121E-4],"categories":[],"categories_nodes":[],"categories_segments":[],"categories_sizes":[],"default_left":[0,0,0,0,0,0,0,0,0],"id":70,"left_children":[1,-1,3,5,7,-1,-1,-1,-1],"loss_changes":[2.6092825E1,0E0,2.730362E1,6.41579E1,1.4949111E1,0E0,0E0,0E0,0E0],"parents":[2147483647,0,0,2,2,3,3,4,4],"right_children":[2,-1,4,6,8,-1,-1,-1,-1],"split_conditions":[1E0,-7.73157E-2,1E0,3E0,1E0,1.3209534E-1,1.7209582E-3,-8.241916E-2,-2.3724121E-4],"split_indices":[11,0,21,0,8,0,0,0,0],"split_type":[0,0,0,0,0,0,0,0,0],"sum_hessian":[2.4107826E2,2.4111902E1,2.1696635E2,1.611E2,5.5866356E1,2.8548336E1,1.3255167E2,2.5780973E1,3.0085384E1],"tree_param":{"num_deleted":"0","num_feature":"34","num_nodes":"9","size_leaf_vector":"1"}},{"base_weights":[6.990635E-3,-7.698981E-2,1.096891E-1,2.2016236E-1,-7.748818E-2,-3.30685E-2,4.1654218E-2],"categories":[],"categories_nodes":[],"categories_segments":[],"categories_sizes":[],"default_left":[0,0,0,0,0,0,0],"id":71,"left_children":[1,-1,3,5,-1,-1,-1],"loss_changes":[2.3934221E1,0E0,2.6101746E1,3.7900463E1,0E0,0E0,0E0],"parents":[2147483647,0,0,2,2,3,3],"right_children":[2,-1,4,6,-1,-1,-1],"split_conditions":[1E0,-7.698981E-2,1.139E3,4.1562576E-2,-7.748818E-2,-3.30685E-2,4.1654218E-2],"split_indices":[11,0,30,33,0,0,0],"split_type":[0,0,0,0,0,0,0],"sum_hessian":[2.3835864E2,2.2031748E1,2.163269E2,1.9694525E2,1.9381641E1,6.3244205E1,1.3370105E2],"tree_param":{"num_deleted":"0","num_feature":"34","num_nodes":"7","size_leaf_vector":"1"}},{"base_weights":[-1.513596E-2,-2.0236027E-1,5.258811E-1,-3.76637E-1,4.463059E-1,7.495024E-1,-7.1269564E-2,-5.2210696E-2,2.148109E-2,1.19404845E-1,-3.9652806E-2,-8.017576E-4,8.007531E-2],"categories":[],"categories_nodes":[],"categories_segments":[],"categories_sizes":[],"default_left":[0,0,0,0,0,0,0,0,0,0,0,0,0],"id":72,"left_children":[1,3,5,7,9,11,-1,-1,-1,-1,-1,-1,-1],"loss_changes":[2.3799026E1,1.9894001E1,1.9807417E1,2.4762037E1,3.7609066E1,1.0078215E1,0E0,0E0,0E0,0E0,0E0,0E0,0E0],"parents":[2147483647,0,0,1,1,2,2,3,3,4,4,5,5],"right_children":[2,4,6,8,10,12,-1,-1,-1,-1,-1,-1,-1],"split_conditions":[3E0,1E0,1E0,1E0,1E0,4E0,-7.1269564E-2,-5.2210696E-2,2.148109E-2,1.19404845E-1,-3.9652806E-2,-8.017576E-4,8.007531E-2],"split_indices":[11,8,29,9,21,0,0,0,0,0,0,0,0],"split_type":[0,0,0,0,0,0,0,0,0,0,0,0,0],"sum_hessian":[2.3290508E2,1.7349231E2,5.941277E1,1.3708195E2,3.641036E1,5.1720177E1,7.6925917E0,9.600095E1,4.1080997E1,1.697333E1,1.9437027E1,1.3102241E1,3.8617935E1],"tree_param":{"num_deleted":"0","num_feature":"34","num_nodes":"13","size_leaf_vector":"1"}},{"base_weights":[-1.3432666E-2,-1.9339669E-1,5.218249E-1,9.883553E-2,-5.6534857E-1,7.4770284E-1,-7.0820756E-2,-3.6267262E-2,7.9596356E-2,-8.311024E-2,4.0301517E-2,7.9702236E-2,2.837693E-3],"categories":[],"categories_nodes":[],"categories_segments":[],"categories_sizes":[],"default_left":[0,0,0,0,0,0,0,0,0,0,0,0,0],"id":73,"left_children":[1,3,5,7,9,11,-1,-1,-1,-1,-1,-1,-1],"loss_changes":[2.1752186E1,1.8419209E1,1.8723053E1,4.7686523E1,3.822995E1,8.729748E0,0E0,0E0,0E0,0E0,0E0,0E0,0E0],"parents":[2147483647,0,0,1,1,2,2,3,3,4,4,5,5],"right_children":[2,4,6,8,10,12,-1,-1,-1,-1,-1,-1,-1],"split_conditions":[3E0,1E0,1E0,2E0,1E0,1E0,-7.0820756E-2,-3.6267262E-2,7.9596356E-2,-8.311024E-2,4.0301517E-2,7.9702236E-2,2.837693E-3],"split_indices":[11,7,29,11,3,6,0,0,0,0,0,0,0],"split_type":[0,0,0,0,0,0,0,0,0,0,0,0,0],"sum_hessian":[2.2376817E2,1.6794162E2,5.5826557E1,9.446073E1,7.348088E1,4.8508198E1,7.3183594E0,5.8752407E1,3.570833E1,5.0944862E1,2.253602E1,3.5662766E1,1.2845432E1],"tree_param":{"num_deleted":"0","num_feature":"34","num_nodes":"13","size_leaf_vector":"1"}},{"base_weights":[-1.4801241E-2,-1.8701357E-1,5.931385E-1,5.4678906E-2,-8.277775E-2,1.4269423E0,7.796811E-3,-1.742136E-2,7.951452E-2,-6.4337894E-2,1.643111E-1,-7.5899825E-2,7.6730795E-2],"categories":[],"categories_nodes":[],"categories_segments":[],"categories_sizes":[],"default_left":[0,0,0,0,0,0,0,0,0,0,0,0,0],"id":74,"left_children":[1,3,5,7,-1,9,11,-1,-1,-1,-1,-1,-1],"loss_changes":[2.2578907E1,3.4475727E1,2.322639E1,3.391072E1,0E0,2.9114265E1,2.7281166E1,0E0,0E0,0E0,0E0,0E0,0E0],"parents":[2147483647,0,0,1,1,2,2,3,3,5,5,6,6],"right_children":[2,4,6,8,-1,10,12,-1,-1,-1,-1,-1,-1],"split_conditions":[1E0,1E0,1E0,3E0,-8.277775E-2,1E0,2E0,-1.742136E-2,7.951452E-2,-6.4337894E-2,1.643111E-1,-7.5899825E-2,7.6730795E-2],"split_indices":[8,27,21,11,0,11,11,0,0,0,0,0,0],"split_type":[0,0,0,0,0,0,0,0,0,0,0,0,0],"sum_hessian":[2.1360472E2,1.6699274E2,4.661199E1,1.3067198E2,3.632075E1,1.863258E1,2.797941E1,1.0188631E2,2.8785677E1,4.0251575E0,1.4607422E1,1.3952886E1,1.40265255E1],"tree_param":{"num_deleted":"0","num_feature":"34","num_nodes":"13","size_leaf_vector":"1"}},{"base_weights":[-1.7248312E-2,-1.6975328E-1,5.501479E-1,6.387121E-2,-8.236478E-2,1.3177404E0,1.9439692E-2,1.7085383E-2,-7.846339E-2,1.6975403E-1,2.6331697E-2,-3.0615186E-2,7.157753E-2],"categories":[],"categories_nodes":[],"categories_segments":[],"categories_sizes":[],"default_left":[0,0,0,0,0,0,0,0,0,0,0,0,0],"id":75,"left_children":[1,3,5,7,-1,9,11,-1,-1,-1,-1,-1,-1],"loss_changes":[1.781849E1,3.2649567E1,1.7747746E1,2.0303772E1,0E0,1.3468401E1,9.778919E0,0E0,0E0,0E0,0E0,0E0,0E0],"parents":[2147483647,0,0,1,1,2,2,3,3,5,5,6,6],"right_children":[2,4,6,8,-1,10,12,-1,-1,-1,-1,-1,-1],"split_conditions":[1E0,1E0,1E0,1E0,-8.236478E-2,3E0,1E0,1.7085383E-2,-7.846339E-2,1.6975403E-1,2.6331697E-2,-3.0615186E-2,7.157753E-2],"split_indices":[8,27,21,21,0,0,27,0,0,0,0,0,0],"split_type":[0,0,0,0,0,0,0,0,0,0,0,0,0],"sum_hessian":[2.0384164E2,1.6121187E2,4.2629772E1,1.2749497E2,3.37169E1,1.6819628E1,2.5810143E1,1.12211136E2,1.5283838E1,8.642702E0,8.176926E0,1.8070702E1,7.7394404E0],"tree_param":{"num_deleted":"0","num_feature":"34","num_nodes":"13","size_leaf_vector":"1"}},{"base_weights":[9.1970357E-4,-7.675061E-2,1.1628017E-1,2.242644E-1,-7.636569E-2,3.859813E-2,-3.576081E-2],"categories":[],"categories_nodes":[],"categories_segments":[],"categories_sizes":[],"default_left":[0,0,0,0,0,0,0],"id":76,"left_children":[1,-1,3,5,-1,-1,-1],"loss_changes":[2.2494349E1,0E0,2.117511E1,2.8897491E1,0E0,0E0,0E0],"parents":[2147483647,0,0,2,2,3,3],"right_children":[2,-1,4,6,-1,-1,-1],"split_conditions":[1E0,-7.675061E-2,1.139E3,1E0,-7.636569E-2,3.859813E-2,-3.576081E-2],"split_indices":[11,0,30,21,0,0,0],"split_type":[0,0,0,0,0,0,0],"sum_hessian":[2.0104555E2,2.0776667E1,1.8026888E2,1.6447395E2,1.5794917E1,1.1898607E2,4.5487892E1],"tree_param":{"num_deleted":"0","num_feature":"34","num_nodes":"7","size_leaf_vector":"1"}},{"base_weights":[-5.4805917E-3,-7.6417916E-2,1.0145445E-1,-7.8842424E-2,7.378719E-1,1.672476E-2,-8.173757E-2,-6.400755E-2,7.299594E-2],"categories":[],"categories_nodes":[],"categories_segments":[],"categories_sizes":[],"default_left":[0,0,0,0,0,0,0,0,0],"id":77,"left_children":[1,-1,3,5,7,-1,-1,-1,-1],"loss_changes":[2.0184593E1,0E0,2.0560352E1,3.8254463E1,1.1346617E1,0E0,0E0,0E0,0E0],"parents":[2147483647,0,0,2,2,3,3,4,4],"right_children":[2,-1,4,6,8,-1,-1,-1,-1],"split_conditions":[1E0,-7.6417916E-2,1E0,1E0,1E0,1.672476E-2,-8.173757E-2,-6.400755E-2,7.299594E-2],"split_indices":[11,0,8,27,0,0,0,0,0],"split_type":[0,0,0,0,0,0,0,0,0],"sum_hessian":[1.9678963E2,1.911217E1,1.7767744E2,1.3913629E2,3.8541157E1,1.07185974E2,3.1950321E1,3.5636446E0,3.4977512E1],"tree_param":{"num_deleted":"0","num_feature":"34","num_nodes":"9","size_leaf_vector":"1"}},{"base_weights":[-4.594054E-3,-7.610239E-2,9.600342E-2,1.9767357E-1,-7.600251E-2,3.6018506E-2,-3.611743E-2],"categories":[],"categories_nodes":[],"categories_segments":[],"categories_sizes":[],"default_left":[0,0,0,0,0,0,0],"id":78,"left_children":[1,-1,3,5,-1,-1,-1],"loss_changes":[1.8605728E1,0E0,1.8973913E1,2.6733467E1,0E0,0E0,0E0],"parents":[2147483647,0,0,2,2,3,3],"right_children":[2,-1,4,6,-1,-1,-1],"split_conditions":[1E0,-7.610239E-2,1.139E3,1E0,-7.600251E-2,3.6018506E-2,-3.611743E-2],"split_indices":[11,0,30,21,0,0,0],"split_type":[0,0,0,0,0,0,0],"sum_hessian":[1.9340915E2,1.7765766E1,1.7564339E2,1.6082309E2,1.48203E1,1.15998604E2,4.482449E1],"tree_param":{"num_deleted":"0","num_feature":"34","num_nodes":"7","size_leaf_vector":"1"}},{"base_weights":[4.9712597E-3,-7.57947E-2,1.0140359E-1,1.9711585E-1,-7.555467E-2,-3.2221135E-2,3.6494534E-2],"categories":[],"categories_nodes":[],"categories_segments":[],"categories_sizes":[],"default_left":[0,0,0,0,0,0,0],"id":79,"left_children":[1,-1,3,5,-1,-1,-1],"loss_changes":[1.7593552E1,0E0,1.7593729E1,2.5072289E1,0E0,0E0,0E0],"parents":[2147483647,0,0,2,2,3,3],"right_children":[2,-1,4,6,-1,-1,-1],"split_conditions":[1E0,-7.57947E-2,1.139E3,4.0956784E-2,-7.555467E-2,-3.2221135E-2,3.6494534E-2],"split_indices":[11,0,30,33,0,0,0],"split_type":[0,0,0,0,0,0,0],"sum_hessian":[1.8951587E2,1.6613113E1,1.7290274E2,1.5914934E2,1.3753409E1,4.783358E1,1.1131576E2],"tree_param":{"num_deleted":"0","num_feature":"34","num_nodes":"7","size_leaf_vector":"1"}}]},"name":"gbtree"},"learner_model_param":{"base_score":"[2.8883326E-1]","boost_from_average":"1","num_class":"0","num_feature":"34","num_target":"1"},"objective":{"name":"binary:logistic","reg_loss_param":{"scale_pos_weight":"1"}}},"version":[3,3,0]}